{"learner":{"attributes":{"scikit_learn":"{\"_estimator_type\": \"classifier\"}"},"feature_names":[],"feature_types":[],"gradient_booster":{"model":{"gbtree_model_param":{"num_parallel_tree":"1","num_trees":"600"},"iteration_indptr":[0,6,12,18,24,30,36,42,48,54,60,66,72,78,84,90,96,102,108,114,120,126,132,138,144,150,156,162,168,174,180,186,192,198,204,210,216,222,228,234,240,246,252,258,264,270,276,282,288,294,300,306,312,318,324,330,336,342,348,354,360,366,372,378,384,390,396,402,408,414,420,426,432,438,444,450,456,462,468,474,480,486,492,498,504,510,516,522,528,534,540,546,552,558,564,570,576,582,588,594,600],"tree_info":[0,1,2,3,4,5,0,1,2,3,4,5,0,1,2,3,4,5,0,1,2,3,4,5,0,1,2,3,4,5,0,1,2,3,4,5,0,1,2,3,4,5,0,1,2,3,4,5,0,1,2,3,4,5,0,1,2,3,4,5,0,1,2,3,4,5,0,1,2,3,4,5,0,1,2,3,4,5,0,1,2,3,4,5,0,1,2,3,4,5,0,1,2,3,4,5,0,1,2,3,4,5,0,1,2,3,4,5,0,1,2,3,4,5,0,1,2,3,4,5,0,1,2,3,4,5,0,1,2,3,4,5,0,1,2,3,4,5,0,1,2,3,4,5,0,1,2,3,4,5,0,1,2,3,4,5,0,1,2,3,4,5,0,1,2,3,4,5,0,1,2,3,4,5,0,1,2,3,4,5,0,1,2,3,4,5,0,1,2,3,4,5,0,1,2,3,4,5,0,1,2,3,4,5,0,1,2,3,4,5,0,1,2,3,4,5,0,1,2,3,4,5,0,1,2,3,4,5,0,1,2,3,4,5,0,1,2,3,4,5,0,1,2,3,4,5,0,1,2,3,4,5,0,1,2,3,4,5,0,1,2,3,4,5,0,1,2,3,4,5,0,1,2,3,4,5,0,1,2,3,4,5,0,1,2,3,4,5,0,1,2,3,4,5,0,1,2,3,4,5,0,1,2,3,4,5,0,1,2,3,4,5,0,1,2,3,4,5,0,1,2,3,4,5,0,1,2,3,4,5,0,1,2,3,4,5,0,1,2,3,4,5,0,1,2,3,4,5,0,1,2,3,4,5,0,1,2,3,4,5,0,1,2,3,4,5,0,1,2,3,4,5,0,1,2,3,4,5,0,1,2,3,4,5,0,1,2,3,4,5,0,1,2,3,4,5,0,1,2,3,4,5,0,1,2,3,4,5,0,1,2,3,4,5,0,1,2,3,4,5,0,1,2,3,4,5,0,1,2,3,4,5,0,1,2,3,4,5,0,1,2,3,4,5,0,1,2,3,4,5,0,1,2,3,4,5,0,1,2,3,4,5,0,1,2,3,4,5,0,1,2,3,4,5,0,1,2,3,4,5,0,1,2,3,4,5,0,1,2,3,4,5,0,1,2,3,4,5,0,1,2,3,4,5,0,1,2,3,4,5,0,1,2,3,4,5,0,1,2,3,4,5,0,1,2,3,4,5,0,1,2,3,4,5,0,1,2,3,4,5,0,1,2,3,4,5,0,1,2,3,4,5,0,1,2,3,4,5,0,1,2,3,4,5,0,1,2,3,4,5,0,1,2,3,4,5,0,1,2,3,4,5,0,1,2,3,4,5,0,1,2,3,4,5,0,1,2,3,4,5],"trees":[{"base_weights":[-2.6721882E-8,-2.169168E-1,2.178082E0,-3.3414575E-1,1.3322682E0,2.5238094E0,-2.0632376E-8,-4.186981E-1,4.948453E-1,1.9736841E0,-3.2038835E-1,-9.4736844E-2,2.6983237E0,-1.2413794E-1,1.8947369E-1,-4.7838533E-1,4.186046E-1,-1.395349E-1,1.5405405E0,2.4404144E0,-1.1886793E-1,4.736842E-2,-1.4096385E-1,4.736842E-2,8.52071E-1,-5.026178E-1,7.8082186E-1,6.041096E-1,-1.9211824E-1,8.3132523E-1,-1.6321245E-1,-1.764706E-1,7.346938E-1,8.063584E-1,4.736842E-2,-1.5535402E-1,3.3157894E-1,-1.12500004E-1,5.232558E-1,-1.6179776E-1,3.976744E-1,-1.1886793E-1,5.625E-1,-1.12500004E-1,4.736842E-2],"categories":[],"categories_nodes":[],"categories_segments":[],"categories_sizes":[],"default_left":[0,0,0,0,0,0,0,0,0,0,0,0,0,0,0,0,0,0,0,0,0,0,0,0,0,0,0,0,0,0,0,0,0,0,0,0,0,0,0,0,0,0,0,0,0],"id":0,"left_children":[1,3,5,7,9,11,13,15,17,19,21,-1,23,-1,-1,25,27,29,31,33,-1,-1,-1,-1,-1,35,37,-1,39,41,-1,43,-1,-1,-1,-1,-1,-1,-1,-1,-1,-1,-1,-1,-1],"loss_changes":[1.2693494E2,4.4818394E1,1.832354E1,1.6184534E1,1.9065264E1,1.12586975E1,1.3938293E0,1.0564781E1,1.4514233E1,1.4977673E1,4.833253E-1,0E0,6.7218475E0,0E0,0E0,6.3138046E0,1.4349833E1,6.081252E0,1.3257191E1,5.6315346E0,0E0,0E0,0E0,0E0,0E0,5.2492332E0,5.1698394E0,0E0,6.657822E0,6.6505165E0,0E0,3.099845E-1,0E0,0E0,0E0,0E0,0E0,0E0,0E0,0E0,0E0,0E0,0E0,0E0,0E0],"parents":[2147483647,0,0,1,1,2,2,3,3,4,4,5,5,6,6,7,7,8,8,9,9,10,10,12,12,15,15,16,16,17,17,18,18,19,19,25,25,26,26,28,28,29,29,31,31],"right_children":[2,4,6,8,10,12,14,16,18,20,22,-1,24,-1,-1,26,28,30,32,34,-1,-1,-1,-1,-1,36,38,-1,40,42,-1,44,-1,-1,-1,-1,-1,-1,-1,-1,-1,-1,-1,-1,-1],"split_conditions":[2.3718822E-1,5.943078E-2,1.1958385E-2,4.4551365E-2,4.6383403E-2,2.3823122E-4,1.9322159E-2,3.2701135E-2,2.48362E-2,1.2994097E-2,3.0544844E-2,-9.4736844E-2,9.926417E-2,-1.2413794E-1,1.8947369E-1,1.4417563E-2,2.1149634E-1,5.396568E-2,5.1088206E-2,2.5514232E-3,-1.1886793E-1,4.736842E-2,-1.4096385E-1,4.736842E-2,8.52071E-1,1.872732E-2,9.177366E-3,6.041096E-1,5.427882E-3,1.1350997E-3,-1.6321245E-1,1.13873616E-1,7.346938E-1,8.063584E-1,4.736842E-2,-1.5535402E-1,3.3157894E-1,-1.12500004E-1,5.232558E-1,-1.6179776E-1,3.976744E-1,-1.1886793E-1,5.625E-1,-1.12500004E-1,4.736842E-2],"split_indices":[33619,31859,38412,18227,26935,43232,76,22508,37421,42412,10,0,1683,0,0,10581,32020,15929,22894,17280,0,0,0,0,0,13893,9967,0,16426,3404,0,1,0,0,0,0,0,0,0,0,0,0,0,0,0],"split_type":[0,0,0,0,0,0,0,0,0,0,0,0,0,0,0,0,0,0,0,0,0,0,0,0,0,0,0,0,0,0,0,0,0,0,0,0,0,0,0,0,0,0,0,0,0],"sum_hessian":[2.666667E2,2.4333334E2,2.3333334E1,2.2694446E2,1.638889E1,2E1,3.3333335E0,2.063889E2,2.0555557E1,1.1666667E1,4.7222223E0,1.1111112E0,1.888889E1,2.2222223E0,1.1111112E0,1.9305556E2,1.3333334E1,1.3333334E1,7.2222223E0,9.722222E0,1.9444445E0,1.1111112E0,3.6111112E0,1.1111112E0,1.7777779E1,1.9000002E2,3.0555558E0,3.0555558E0,1.0277779E1,3.6111112E0,9.722222E0,2.777778E0,4.4444447E0,8.611112E0,1.1111112E0,1.888889E2,1.1111112E0,1.6666667E0,1.388889E0,8.888889E0,1.388889E0,1.9444445E0,1.6666667E0,1.6666667E0,1.1111112E0],"tree_param":{"num_deleted":"0","num_feature":"57600","num_nodes":"45","size_leaf_vector":"1"}},{"base_weights":[-2.6721882E-8,1.0018814E0,-2.8226876E-1,2.1683166E0,5.244215E-1,1.5137614E0,-3.9042822E-1,-1.1886793E-1,2.5298505E0,7.088495E-1,2.0644213E-1,2.2025316E0,-2.3076925E-1,1.6019416E0,-4.472477E-1,4.736842E-2,8.129032E-1,6.6176474E-1,-1.4218034E-2,7.826087E-1,-9.4736844E-2,-1.2413794E-1,4.736842E-2,-9.4736844E-2,6.39759E-1,1.111888E0,-5.111508E-1,-4.1095892E-1,8.028168E-1,-2.5301206E-1,6.9230765E-1,1.1470587E0,-5.424087E-1,-1.5933014E-1,3.3157894E-1,5.9999996E-1,-1.09756105E-1,4.736842E-2,-1.2857144E-1,5.625E-1,-9.4736844E-2,3.3157894E-1,-1.675372E-1],"categories":[],"categories_nodes":[],"categories_segments":[],"categories_sizes":[],"default_left":[0,0,0,0,0,0,0,0,0,0,0,0,0,0,0,0,0,0,0,0,0,0,0,0,0,0,0,0,0,0,0,0,0,0,0,0,0,0,0,0,0,0,0],"id":1,"left_children":[1,3,5,7,9,11,13,-1,15,-1,17,19,21,23,25,-1,-1,-1,27,-1,-1,-1,-1,-1,-1,29,31,33,35,37,-1,39,41,-1,-1,-1,-1,-1,-1,-1,-1,-1,-1],"loss_changes":[7.597888E1,3.175246E1,4.130957E1,1.6609749E1,2.4778912E1,1.5060755E1,2.3187748E1,0E0,5.9228745E0,0E0,1.677233E1,9.802158E0,3.7358645E-1,6.49594E0,1.9875107E1,0E0,0E0,0E0,1.172924E1,0E0,0E0,0E0,0E0,0E0,0E0,1.3550424E1,1.030616E1,5.0195975E0,1.7287876E1,4.0030798E-1,0E0,4.614938E0,5.4841957E0,0E0,0E0,0E0,0E0,0E0,0E0,0E0,0E0,0E0,0E0],"parents":[2147483647,0,0,1,1,2,2,3,3,4,4,5,5,6,6,8,8,10,10,11,11,12,12,13,13,14,14,18,18,25,25,26,26,27,27,28,28,29,29,31,31,32,32],"right_children":[2,4,6,8,10,12,14,-1,16,-1,18,20,22,24,26,-1,-1,-1,28,-1,-1,-1,-1,-1,-1,30,32,34,36,38,-1,40,42,-1,-1,-1,-1,-1,-1,-1,-1,-1,-1],"split_conditions":[2.5975557E-2,2.5469768E-1,1.0382659E-2,1.5044443E-1,1.350925E-1,1.49825E-1,7.4533194E-2,-1.1886793E-1,9.020655E-2,7.088495E-1,2.2315417E-1,1.4363638E-1,9.3525976E-2,6.600675E-2,1.8012202E-3,4.736842E-2,8.129032E-1,6.6176474E-1,2.0687449E-1,7.826087E-1,-9.4736844E-2,-1.2413794E-1,4.736842E-2,-9.4736844E-2,6.39759E-1,1.8410517E-1,1.4929708E-2,5.0376076E-3,2.0009296E-1,1.51226E-1,6.9230765E-1,1.5370145E-4,1.9589206E-2,-1.5933014E-1,3.3157894E-1,5.9999996E-1,-1.09756105E-1,4.736842E-2,-1.2857144E-1,5.625E-1,-9.4736844E-2,3.3157894E-1,-1.675372E-1],"split_indices":[29815,39458,33655,15298,47298,27841,31873,0,26259,0,27637,1158,3,131,39287,0,0,0,23784,0,0,0,0,0,0,20392,38049,52818,8770,2,0,320,23457,0,0,0,0,0,0,0,0,0,0],"split_type":[0,0,0,0,0,0,0,0,0,0,0,0,0,0,0,0,0,0,0,0,0,0,0,0,0,0,0,0,0,0,0,0,0,0,0,0,0,0,0,0,0,0,0],"sum_hessian":[2.666667E2,5.8055557E1,2.0861111E2,1.5833334E1,4.2222225E1,1.1111112E1,1.9750002E2,1.9444445E0,1.3888889E1,5.277778E0,3.6944447E1,7.777778E0,3.3333335E0,4.7222223E0,1.9277779E2,1.1111112E0,1.2777779E1,2.777778E0,3.4166668E1,6.666667E0,1.1111112E0,2.2222223E0,1.1111112E0,1.1111112E0,3.6111112E0,6.9444447E0,1.8583334E2,2.3333334E1,1.0833334E1,3.6111112E0,3.3333335E0,2.777778E0,1.8305556E2,2.2222223E1,1.1111112E0,5E0,5.8333335E0,1.1111112E0,2.5E0,1.6666667E0,1.1111112E0,1.1111112E0,1.8194446E2],"tree_param":{"num_deleted":"0","num_feature":"57600","num_nodes":"43","size_leaf_vector":"1"}},{"base_weights":[-2.6721882E-8,-2.939347E-1,1.1595091E0,-4.0306124E-1,8.275861E-1,3.309222E-1,2.1467266E0,-4.5867768E-1,8.3544296E-1,-4.2253543E-2,1.9411763E0,-2.110553E-1,1.5433525E0,-1.2857144E-1,2.4572864E0,-4.980201E-1,6.5853655E-1,-1.4096385E-1,1.8387096E0,-1.6127169E-1,4.3448275E-1,-1.0465116E-1,7.312499E-1,-1.6948052E-1,8.3333325E-1,7.169491E-1,-2.0547946E-1,3.5294113E-1,2.741379E0,-5.240459E-1,6.9230765E-1,5.029412E-1,-1.3561645E-1,6.780822E-1,4.736842E-2,-1.3235295E-1,6.2068963E-1,4.736842E-2,-1.1886793E-1,-1.12500004E-1,3.3157894E-1,8.506098E-1,1.8947369E-1,-1.6212925E-1,3.3157894E-1,5.232558E-1,-1.1886793E-1],"categories":[],"categories_nodes":[],"categories_segments":[],"categories_sizes":[],"default_left":[0,0,0,0,0,0,0,0,0,0,0,0,0,0,0,0,0,0,0,0,0,0,0,0,0,0,0,0,0,0,0,0,0,0,0,0,0,0,0,0,0,0,0,0,0,0,0],"id":2,"left_children":[1,3,5,7,9,11,13,15,17,19,21,23,25,-1,27,29,31,-1,33,-1,-1,-1,-1,-1,35,-1,37,39,41,43,45,-1,-1,-1,-1,-1,-1,-1,-1,-1,-1,-1,-1,-1,-1,-1,-1],"loss_changes":[9.1566956E1,2.6565327E1,4.3734016E1,1.38839245E1,1.880916E1,2.0513609E1,2.073668E1,8.601063E0,1.235923E1,9.514951E0,1.0511284E1,8.64278E0,1.4718847E1,0E0,1.2251129E1,6.013077E0,8.482999E0,0E0,3.3040676E0,0E0,0E0,0E0,0E0,0E0,1.0361731E1,0E0,3.4366286E-1,2.4833589E0,2.0428925E0,5.3773956E0,5.652783E0,0E0,0E0,0E0,0E0,0E0,0E0,0E0,0E0,0E0,0E0,0E0,0E0,0E0,0E0,0E0,0E0],"parents":[2147483647,0,0,1,1,2,2,3,3,4,4,5,5,6,6,7,7,8,8,9,9,10,10,11,11,12,12,14,14,15,15,16,16,18,18,24,24,26,26,27,27,28,28,29,29,30,30],"right_children":[2,4,6,8,10,12,14,16,18,20,22,24,26,-1,28,30,32,-1,34,-1,-1,-1,-1,-1,36,-1,38,40,42,44,46,-1,-1,-1,-1,-1,-1,-1,-1,-1,-1,-1,-1,-1,-1,-1,-1],"split_conditions":[1.7214207E-1,2.912303E-1,3.093837E-1,3.5378978E-1,1.6641062E-1,1.6580099E-1,2.0538884E-1,3.343924E-2,5.1481187E-2,3.2608956E-1,6.350748E-2,1.8656826E-1,3.0420514E-2,-1.2857144E-1,1.5960732E-1,8.5539766E-2,8.312589E-3,-1.4096385E-1,3.3744812E-1,-1.6127169E-1,4.3448275E-1,-1.0465116E-1,7.312499E-1,-1.6948052E-1,1.5364166E-1,7.169491E-1,6.2315475E-2,1.17731E-1,1.6080551E-1,1.5653642E-2,3.4990454E-1,5.029412E-1,-1.3561645E-1,6.780822E-1,4.736842E-2,-1.3235295E-1,6.2068963E-1,4.736842E-2,-1.1886793E-1,-1.12500004E-1,3.3157894E-1,8.506098E-1,1.8947369E-1,-1.6212925E-1,3.3157894E-1,5.232558E-1,-1.1886793E-1],"split_indices":[36691,7001,17812,52692,23908,15507,16471,48051,32906,42196,13827,42591,21964,0,29887,51375,5728,0,8,0,0,0,0,0,42881,0,3,326,7,9340,802,0,0,0,0,0,0,0,0,0,0,0,0,0,0,0,0],"split_type":[0,0,0,0,0,0,0,0,0,0,0,0,0,0,0,0,0,0,0,0,0,0,0,0,0,0,0,0,0,0,0,0,0,0,0,0,0,0,0,0,0,0,0,0,0,0,0],"sum_hessian":[2.666667E2,2.1333334E2,5.3333336E1,1.9500002E2,1.8333334E1,2.9722223E1,2.3611113E1,1.8722223E2,7.777778E0,1.0833334E1,7.5000005E0,2.1111113E1,8.611112E0,2.5E0,2.1111113E1,1.813889E2,5.8333335E0,3.6111112E0,4.166667E0,8.611112E0,2.2222223E0,1.388889E0,6.1111116E0,1.6111113E1,5E0,5.555556E0,3.0555558E0,2.777778E0,1.8333334E1,1.7805556E2,3.3333335E0,2.777778E0,3.0555558E0,3.0555558E0,1.1111112E0,2.777778E0,2.2222223E0,1.1111112E0,1.9444445E0,1.6666667E0,1.1111112E0,1.7222223E1,1.1111112E0,1.7694446E2,1.1111112E0,1.388889E0,1.9444445E0],"tree_param":{"num_deleted":"0","num_feature":"57600","num_nodes":"47","size_leaf_vector":"1"}},{"base_weights":[-2.6721882E-8,3.4401968E-1,-3.483146E-1,-4.1952506E-1,6.822208E-1,1.0273972E0,-3.8841566E-1,-5.3436184E-1,9.9999994E-1,-8.356571E-3,1.1691842E0,-1.0465116E-1,5.625E-1,-4.1673857E-1,3.3749998E-1,-1.7532468E-1,1.8947369E-1,-9.4736844E-2,5.232558E-1,-3.0860034E-1,1.2377621E0,1.7079934E0,2.8643212E-1,-4.6374828E-1,3.5664332E-1,-4.8066297E-1,1.1470587E0,6.677419E-1,-1.3235295E-1,-1.8584073E-1,2.061776E0,-2.9104477E-1,1.2972972E0,-5.0840133E-1,3.2812497E-1,5.625E-1,-3.4513274E-1,2.25E-1,-1.7368421E-1,5.625E-1,-9.4736844E-2,1.8947369E-1,-1.4516129E-1,7.312499E-1,-8.1818186E-2,2.8867924E-1,-1.6609442E-1,5.9999996E-1,-1.2413794E-1,2.4324318E-2,-1.6451614E-1,4.924528E-1,-1.4516129E-1,-1.4516129E-1,4.736842E-2],"categories":[],"categories_nodes":[],"categories_segments":[],"categories_sizes":[],"default_left":[0,0,0,0,0,0,0,0,0,0,0,0,0,0,0,0,0,0,0,0,0,0,0,0,0,0,0,0,0,0,0,0,0,0,0,0,0,0,0,0,0,0,0,0,0,0,0,0,0,0,0,0,0,0,0],"id":3,"left_children":[1,3,5,7,9,11,13,15,17,19,21,-1,-1,23,-1,-1,-1,-1,-1,25,27,29,31,33,35,37,39,-1,-1,41,43,45,47,49,51,-1,53,-1,-1,-1,-1,-1,-1,-1,-1,-1,-1,-1,-1,-1,-1,-1,-1,-1,-1],"loss_changes":[3.2193542E1,3.5190533E1,7.763918E0,7.399049E0,3.1639324E1,5.384876E0,6.0602417E0,2.6807976E0,3.9779685E0,1.5305979E1,2.574997E1,0E0,0E0,4.8472996E0,0E0,0E0,0E0,0E0,0E0,8.802764E0,1.416074E1,2.3200577E1,1.3284962E1,4.4747906E0,9.112297E0,4.083019E0,4.614938E0,0E0,0E0,1.8349684E0,2.5906593E1,5.433032E0,1.0713886E1,2.7721405E0,8.378014E0,0E0,5.145214E-1,0E0,0E0,0E0,0E0,0E0,0E0,0E0,0E0,0E0,0E0,0E0,0E0,0E0,0E0,0E0,0E0,0E0,0E0],"parents":[2147483647,0,0,1,1,2,2,3,3,4,4,5,5,6,6,7,7,8,8,9,9,10,10,13,13,19,19,20,20,21,21,22,22,23,23,24,24,25,25,26,26,29,29,30,30,31,31,32,32,33,33,34,34,36,36],"right_children":[2,4,6,8,10,12,14,16,18,20,22,-1,-1,24,-1,-1,-1,-1,-1,26,28,30,32,34,36,38,40,-1,-1,42,44,46,48,50,52,-1,54,-1,-1,-1,-1,-1,-1,-1,-1,-1,-1,-1,-1,-1,-1,-1,-1,-1,-1],"split_conditions":[2.9568145E-1,2.7961813E-2,3.498637E-2,5.4170623E-2,7.981039E-2,7.194665E-2,9.324468E-3,1.12954825E-2,1.1294896E-1,1.8619435E-1,6.258976E-2,-1.0465116E-1,5.625E-1,2.9642062E-2,3.3749998E-1,-1.7532468E-1,1.8947369E-1,-9.4736844E-2,5.232558E-1,8.298435E-2,6.5301634E-2,9.198162E-2,4.993111E-3,1.0166145E-2,2.4979388E-2,5.339937E-2,1.4734036E-1,6.677419E-1,-1.3235295E-1,2.1286827E-1,1.12257846E-1,1.23839065E-1,1.991086E-1,4.1046627E-2,2.7492407E-3,5.625E-1,1.6274212E-1,2.25E-1,-1.7368421E-1,5.625E-1,-9.4736844E-2,1.8947369E-1,-1.4516129E-1,7.312499E-1,-8.1818186E-2,2.8867924E-1,-1.6609442E-1,5.9999996E-1,-1.2413794E-1,2.4324318E-2,-1.6451614E-1,4.924528E-1,-1.4516129E-1,-1.4516129E-1,4.736842E-2],"split_indices":[21512,12023,25529,10476,28084,643,14138,11418,769,30192,15598,0,0,22187,0,0,0,0,0,25849,11246,4453,13747,23066,26035,17697,339,0,0,1240,33095,20388,56624,23673,16751,0,1,0,0,0,0,0,0,0,0,0,0,0,0,0,0,0,0,0,0],"split_type":[0,0,0,0,0,0,0,0,0,0,0,0,0,0,0,0,0,0,0,0,0,0,0,0,0,0,0,0,0,0,0,0,0,0,0,0,0,0,0,0,0,0,0,0,0,0,0,0,0,0,0,0,0,0,0],"sum_hessian":[2.666667E2,1.3416667E2,1.325E2,4.1111115E1,9.305556E1,3.0555558E0,1.2944446E2,3.8611115E1,2.5E0,3.888889E1,5.4166668E1,1.388889E0,1.6666667E0,1.2777779E2,1.6666667E0,3.75E1,1.1111112E0,1.1111112E0,1.388889E0,3.1944447E1,6.9444447E0,3.3055557E1,2.1111113E1,1.20833336E2,6.9444447E0,2.9166668E1,2.777778E0,4.166667E0,2.777778E0,5.277778E0,2.7777779E1,1.3888889E1,7.2222223E0,1.1472223E2,6.1111116E0,1.6666667E0,5.277778E0,1.6666667E0,2.7500002E1,1.6666667E0,1.1111112E0,1.1111112E0,4.166667E0,2.388889E1,3.888889E0,1.9444445E0,1.1944445E1,5E0,2.2222223E0,7.2222223E0,1.0750001E2,1.9444445E0,4.166667E0,4.166667E0,1.1111112E0],"tree_param":{"num_deleted":"0","num_feature":"57600","num_nodes":"55","size_leaf_vector":"1"}},{"base_weights":[-2.6721882E-8,5.0495046E-1,-3.0417496E-1,-2.1522695E-1,9.2367727E-1,-5.1047143E-2,-5.570292E-1,-4.3143812E-1,1.0776699E0,5.949895E-1,2.3239436E0,-1.3306454E-1,6.2068963E-1,1.125E-1,-5.805142E-1,8.275862E-1,-5.483871E-1,6.4285713E-1,-1.2413794E-1,1.0404353E0,-2.972973E-1,8.114754E-1,-5.029142E-9,-2.7146173E-1,7.183098E-1,-1.7777778E-1,4.736842E-2,-9.4736844E-2,4.7368422E-1,-1.739777E-1,4.736842E-2,1.4999999E0,-1.7098448E-1,8.275862E-1,-5.017065E-1,-3.546798E-1,8.709677E-1,2.032258E0,-2.6086956E-1,3.1468526E-2,6.0087466E-1,-1.6071428E-1,3.976744E-1,-9.4736844E-2,4.7368422E-1,-1.6813186E-1,4.736842E-2,-1.4843424E-1,4.5323733E-2,5.943396E-1,-1.2413794E-1,6.780822E-1,1.8947369E-1,1.8947369E-1,-1.5254238E-1],"categories":[],"categories_nodes":[],"categories_segments":[],"categories_sizes":[],"default_left":[0,0,0,0,0,0,0,0,0,0,0,0,0,0,0,0,0,0,0,0,0,0,0,0,0,0,0,0,0,0,0,0,0,0,0,0,0,0,0,0,0,0,0,0,0,0,0,0,0,0,0,0,0,0,0],"id":4,"left_children":[1,3,5,7,9,11,13,15,17,19,21,23,-1,-1,25,27,29,-1,-1,31,33,-1,-1,35,37,-1,-1,-1,-1,-1,-1,39,41,43,45,47,49,51,53,-1,-1,-1,-1,-1,-1,-1,-1,-1,-1,-1,-1,-1,-1,-1,-1],"loss_changes":[4.1265396E1,3.0656122E1,1.0702975E1,1.107189E1,2.8098873E1,1.5035607E1,2.0514832E0,5.345532E0,9.977522E0,2.1463312E1,1.0476795E1,9.935428E0,0E0,0E0,8.258991E-1,3.2667875E0,7.8209496E-1,0E0,0E0,2.0143955E1,4.669031E0,0E0,0E0,7.138166E0,1.5754814E1,0E0,0E0,0E0,0E0,0E0,0E0,1.8032013E1,6.5627737E0,3.2667875E0,7.190981E-1,4.8694305E0,8.1889715E0,2.2257423E-1,2.0152812E0,0E0,0E0,0E0,0E0,0E0,0E0,0E0,0E0,0E0,0E0,0E0,0E0,0E0,0E0,0E0,0E0],"parents":[2147483647,0,0,1,1,2,2,3,3,4,4,5,5,6,6,7,7,8,8,9,9,10,10,11,11,14,14,15,15,16,16,19,19,20,20,23,23,24,24,31,31,32,32,33,33,34,34,35,35,36,36,37,37,38,38],"right_children":[2,4,6,8,10,12,14,16,18,20,22,24,-1,-1,26,28,30,-1,-1,32,34,-1,-1,36,38,-1,-1,-1,-1,-1,-1,40,42,44,46,48,50,52,54,-1,-1,-1,-1,-1,-1,-1,-1,-1,-1,-1,-1,-1,-1,-1,-1],"split_conditions":[1.30526E-1,1.5884092E-1,1.6008568E-1,2.0321201E-1,1.6431576E-1,1.7609069E-1,1.0247183E-1,1.1342005E-1,1.9196497E-1,2.5268543E-1,5.044853E-2,1.1317018E-1,6.2068963E-1,1.125E-1,1.0229054E-1,1.2372215E-1,1.9800071E-1,6.4285713E-1,-1.2413794E-1,2.7006209E-2,2.6441911E-2,8.114754E-1,-5.029142E-9,1.738283E-1,2.4086048E-1,-1.7777778E-1,4.736842E-2,-9.4736844E-2,4.7368422E-1,-1.739777E-1,4.736842E-2,8.117196E-2,9.012579E-2,8.435121E-2,6.576421E-2,1.4195027E-2,5.502729E-2,1.6246232E-1,7.133482E-2,3.1468526E-2,6.0087466E-1,-1.6071428E-1,3.976744E-1,-9.4736844E-2,4.7368422E-1,-1.6813186E-1,4.736842E-2,-1.4843424E-1,4.5323733E-2,5.943396E-1,-1.2413794E-1,6.780822E-1,1.8947369E-1,1.8947369E-1,-1.5254238E-1],"split_indices":[10177,48895,10259,55720,229,2118,10241,112,194,14744,7223,55732,0,0,1263,130,321,0,0,41376,11466,0,0,57555,34712,0,0,0,0,0,0,52660,5934,114,143,38381,5642,6,7,0,0,0,0,0,0,0,0,0,0,0,0,0,0,0,0],"split_type":[0,0,0,0,0,0,0,0,0,0,0,0,0,0,0,0,0,0,0,0,0,0,0,0,0,0,0,0,0,0,0,0,0,0,0,0,0,0,0,0,0,0,0,0,0,0,0,0,0,0,0,0,0,0,0],"sum_hessian":[2.666667E2,1.0000001E2,1.6666667E2,3.6944447E1,6.3055557E1,8.388889E1,8.277778E1,3.2222225E1,4.7222223E0,5.2222225E1,1.0833334E1,8.166667E1,2.2222223E0,1.6666667E0,8.1111115E1,2.2222223E0,3.0000002E1,2.5E0,2.2222223E0,3.4722225E1,1.75E1,9.166667E0,1.6666667E0,7.0833336E1,1.0833334E1,8E1,1.1111112E0,1.1111112E0,1.1111112E0,2.888889E1,1.1111112E0,2.5000002E1,9.722222E0,2.2222223E0,1.5277779E1,6.666667E1,4.166667E0,4.166667E0,6.666667E0,6.9444447E0,1.8055557E1,8.333334E0,1.388889E0,1.1111112E0,1.1111112E0,1.4166667E1,1.1111112E0,5.2222225E1,1.4444445E1,1.9444445E0,2.2222223E0,3.0555558E0,1.1111112E0,1.1111112E0,5.555556E0],"tree_param":{"num_deleted":"0","num_feature":"57600","num_nodes":"55","size_leaf_vector":"1"}},{"base_weights":[-2.6721882E-8,1.446043E0,-3.642247E-1,2.142857E0,-2.6174498E-1,6.6412205E-1,-4.7821102E-1,2.6285176E0,4.7191006E-1,4.7368422E-1,-4.9640286E-1,1.9180326E0,-3.9473686E-1,7.959183E-1,-5.123239E-1,2.7519684E0,2.0930227E-2,5.5714285E-1,-2.4812031E-1,-1.6744186E-1,4.736842E-2,7.54054E-1,-1.1886793E-1,-1.6442308E-1,1.8947369E-1,5.943396E-1,-1.2857144E-1,6.17647E-1,-5.324598E-1,8.5527945E-1,1.4651163E-1,1.8947369E-1,-1.5132743E-1,-1.12500004E-1,4.7368422E-1,-9.740262E-2,-5.730117E-1,3.1935483E-1,-1.6609442E-1,1.8947369E-1,-1.7539372E-1],"categories":[],"categories_nodes":[],"categories_segments":[],"categories_sizes":[],"default_left":[0,0,0,0,0,0,0,0,0,0,0,0,0,0,0,0,0,0,0,0,0,0,0,0,0,0,0,0,0,0,0,0,0,0,0,0,0,0,0,0,0],"id":5,"left_children":[1,3,5,7,9,11,13,15,17,-1,19,21,23,25,27,29,-1,-1,31,-1,-1,-1,-1,-1,-1,-1,-1,33,35,-1,-1,-1,-1,-1,-1,37,39,-1,-1,-1,-1],"loss_changes":[1.415026E2,6.488757E1,2.547376E1,3.0002808E1,7.9346843E0,2.974555E1,8.830181E0,9.16156E0,1.0324068E1,0E0,7.1199226E-1,1.5006573E1,2.3395748E0,8.75048E0,4.6367607E0,4.9298096E0,0E0,0E0,1.9845632E0,0E0,0E0,0E0,0E0,0E0,0E0,0E0,0E0,4.1969814E0,3.2354774E0,0E0,0E0,0E0,0E0,0E0,0E0,9.660312E0,2.757885E0,0E0,0E0,0E0,0E0],"parents":[2147483647,0,0,1,1,2,2,3,3,4,4,5,5,6,6,7,7,8,8,10,10,11,11,12,12,13,13,14,14,15,15,18,18,27,27,28,28,35,35,36,36],"right_children":[2,4,6,8,10,12,14,16,18,-1,20,22,24,26,28,30,-1,-1,32,-1,-1,-1,-1,-1,-1,-1,-1,34,36,-1,-1,-1,-1,-1,-1,38,40,-1,-1,-1,-1],"split_conditions":[2.1515132E-1,8.8009685E-2,5.6507785E-2,4.814239E-2,5.2376557E-2,1.0886078E-1,9.083021E-2,9.58349E-2,3.0205857E-2,4.7368422E-1,2.3170695E-1,9.386637E-2,1.414382E-2,1.1355177E-1,6.677908E-2,4.220008E-2,2.0930227E-2,5.5714285E-1,8.045966E-2,-1.6744186E-1,4.736842E-2,7.54054E-1,-1.1886793E-1,-1.6442308E-1,1.8947369E-1,5.943396E-1,-1.2857144E-1,1.22120865E-1,8.303997E-2,8.5527945E-1,1.4651163E-1,1.8947369E-1,-1.5132743E-1,-1.12500004E-1,4.7368422E-1,7.180311E-4,2.2433806E-2,3.1935483E-1,-1.6609442E-1,1.8947369E-1,-1.7539372E-1],"split_indices":[33928,31732,57396,29614,4596,43301,34131,33396,12590,0,1151,756,908,17286,45651,47,0,0,178,0,0,0,0,0,0,0,0,966,36353,0,0,0,0,0,0,28384,53928,0,0,0,0],"split_type":[0,0,0,0,0,0,0,0,0,0,0,0,0,0,0,0,0,0,0,0,0,0,0,0,0,0,0,0,0,0,0,0,0,0,0,0,0,0,0,0,0],"sum_hessian":[2.666667E2,5.3055557E1,2.1361111E2,3.75E1,1.5555556E1,2.0833334E1,1.9277779E2,2.8611113E1,8.888889E0,1.1111112E0,1.4444445E1,9.166667E0,1.1666667E1,4.4444447E0,1.8833334E2,2.7222223E1,1.388889E0,2.5E0,6.3888893E0,1.3333334E1,1.1111112E0,7.2222223E0,1.9444445E0,1.0555556E1,1.1111112E0,1.9444445E0,2.5E0,2.777778E0,1.8555556E2,2.5833334E1,1.388889E0,1.1111112E0,5.277778E0,1.6666667E0,1.1111112E0,1.6111113E1,1.6944446E2,4.166667E0,1.1944445E1,1.1111112E0,1.6833334E2],"tree_param":{"num_deleted":"0","num_feature":"57600","num_nodes":"41","size_leaf_vector":"1"}},{"base_weights":[-2.7867109E-3,-2.678648E-1,8.966535E-1,-3.7447572E-1,3.8771936E-1,9.5066406E-2,1.1708015E0,-4.0678656E-1,6.184513E-1,9.67986E-1,-2.7948666E-1,-3.0218047E-1,1.0419542E0,1.2827675E0,-1.2663522E-1,-5.010267E-1,-1.0544427E-1,3.3719188E-1,-1.1133996E-1,-2.3317078E-1,1.3344749E0,-1.5964128E-1,5.721883E-1,2.2608817E-1,-1.57499E-1,3.4399867E-2,3.8710514E-1,-1.0028446E-1,1.3432816E0,-5.3603506E-1,1.3909312E-1,3.0112043E-1,-4.701884E-1,6.1394606E-2,-1.2537204E-1,-8.8075665E-4,4.6198383E-1,2.57799E-1,1.476205E-2,6.02983E-3,1.3930961E0,-1.6551559E-1,1.7875656E-1,-1.408016E-1,3.2967705E-1,-8.986785E-2,3.321411E-1,-1.6634628E-1,1.924354E-1,8.195862E-2,4.3243274E-1],"categories":[],"categories_nodes":[],"categories_segments":[],"categories_sizes":[],"default_left":[0,0,0,0,0,0,0,0,0,0,0,0,0,0,0,0,0,0,0,0,0,0,0,0,0,0,0,0,0,0,0,0,0,0,0,0,0,0,0,0,0,0,0,0,0,0,0,0,0,0,0],"id":6,"left_children":[1,3,5,7,9,11,13,15,17,19,21,23,25,27,-1,29,31,-1,-1,33,35,-1,37,-1,-1,-1,-1,-1,39,41,43,45,47,-1,-1,-1,-1,-1,-1,-1,49,-1,-1,-1,-1,-1,-1,-1,-1,-1,-1],"loss_changes":[6.201755E1,1.4186486E1,1.290049E1,5.8116646E0,1.1340033E1,6.400219E0,8.394852E0,4.730858E0,3.3479557E0,7.1415634E0,3.3331995E0,3.2591248E0,1.0051203E0,4.499077E0,0E0,2.9441452E0,6.2803144E0,0E0,0E0,4.4776493E-1,3.3124256E0,0E0,5.1365864E-1,0E0,0E0,0E0,0E0,0E0,2.6147919E0,2.4877129E0,4.8571777E0,1.0104599E1,2.4370542E0,0E0,0E0,0E0,0E0,0E0,0E0,0E0,1.6975098E0,0E0,0E0,0E0,0E0,0E0,0E0,0E0,0E0,0E0,0E0],"parents":[2147483647,0,0,1,1,2,2,3,3,4,4,5,5,6,6,7,7,8,8,9,9,10,10,11,11,12,12,13,13,15,15,16,16,19,19,20,20,22,22,28,28,29,29,30,30,31,31,32,32,40,40],"right_children":[2,4,6,8,10,12,14,16,18,20,22,24,26,28,-1,30,32,-1,-1,34,36,-1,38,-1,-1,-1,-1,-1,40,42,44,46,48,-1,-1,-1,-1,-1,-1,-1,50,-1,-1,-1,-1,-1,-1,-1,-1,-1,-1],"split_conditions":[3.9477147E-2,1.3755667E-1,1.9307946E-1,3.0457638E-2,1.5365267E-1,1.3118778E-2,1.1807457E-1,4.1684736E-3,1.294197E-1,1.3949664E-1,4.019305E-1,2.24019E-2,6.3863546E-2,2.6846426E-2,-1.2663522E-1,2.4771964E-2,2.6086786E-1,3.3719188E-1,-1.1133996E-1,6.904233E-2,5.110667E-2,-1.5964128E-1,7.366522E-2,2.2608817E-1,-1.57499E-1,3.4399867E-2,3.8710514E-1,-1.0028446E-1,7.9041205E-2,2.3817694E-1,2.3600288E-2,1.8302606E-1,1.4498633E-1,6.1394606E-2,-1.2537204E-1,-8.8075665E-4,4.6198383E-1,2.57799E-1,1.476205E-2,6.02983E-3,7.6460256E-3,-1.6551559E-1,1.7875656E-1,-1.408016E-1,3.2967705E-1,-8.986785E-2,3.321411E-1,-1.6634628E-1,1.924354E-1,8.195862E-2,4.3243274E-1],"split_indices":[20211,29940,22099,29850,44516,40103,4035,1934,6337,27731,52258,6730,4321,48302,0,5095,212,0,0,10676,3694,0,50,0,0,0,0,0,7699,29471,33807,44200,16967,0,0,0,0,0,0,0,42674,0,0,0,0,0,0,0,0,0,0],"split_type":[0,0,0,0,0,0,0,0,0,0,0,0,0,0,0,0,0,0,0,0,0,0,0,0,0,0,0,0,0,0,0,0,0,0,0,0,0,0,0,0,0,0,0,0,0,0,0,0,0,0,0],"sum_hessian":[2.5810947E2,1.9989864E2,5.8210846E1,1.7230692E2,2.7591715E1,1.5178094E1,4.3032753E1,1.674483E2,4.858621E0,1.4516212E1,1.3075502E1,1.1171989E1,4.0061035E0,4.0388554E1,2.644199E0,1.27052086E2,4.0396214E1,3.1259506E0,1.7326705E0,3.4786878E0,1.1037525E1,1.0373401E1,2.702101E0,1.5317163E0,9.640273E0,1.1552112E0,2.8508925E0,1.2937273E0,3.9094826E1,1.2061805E2,6.4340343E0,1.918545E1,2.1210766E1,1.0002744E0,2.4784133E0,1.6011776E0,9.436347E0,1.3291812E0,1.3729198E0,1.4693404E0,3.762549E1,1.1947516E2,1.1428893E0,4.2506113E0,2.1834228E0,1.1353015E1,7.832434E0,2.0181534E1,1.0292308E0,1.8323148E0,3.579317E1],"tree_param":{"num_deleted":"0","num_feature":"57600","num_nodes":"51","size_leaf_vector":"1"}},{"base_weights":[2.2855646E-3,6.7960787E-1,-2.4784938E-1,3.5069016E-1,1.2400647E0,7.2247744E-1,-3.8773432E-1,-3.7100258E-1,7.016132E-1,1.3467896E0,-1.01673625E-1,-5.8522828E-2,1.1851243E0,-4.5566213E-1,8.457266E-1,2.56403E-1,-1.6394788E-1,2.5754045E-3,1.1758068E0,1.4201207E0,2.0360861E-2,-1.5214217E-1,3.1251684E-1,1.3536527E0,-9.828178E-2,5.7449114E-1,-5.1230174E-1,1.3299619E0,-1.2036023E-1,-3.7207288E-1,3.1956345E-1,1.3572036E0,-1.10927545E-1,1.4853412E0,3.371791E-2,6.611848E-2,4.586257E-1,-1.3579386E-1,1.3065693E0,7.948661E-1,-5.3708506E-1,4.3979856E-1,1.3561307E-1,-1.6234693E-1,1.7689614E-1,1.13760615E-2,4.4318E-1,4.593396E-1,1.3770229E-1,4.4773582E-1,1.328443E-1,3.2493597E-1,4.0922564E-2,2.0973213E-1,-1.6694427E-1],"categories":[],"categories_nodes":[],"categories_segments":[],"categories_sizes":[],"default_left":[0,0,0,0,0,0,0,0,0,0,0,0,0,0,0,0,0,0,0,0,0,0,0,0,0,0,0,0,0,0,0,0,0,0,0,0,0,0,0,0,0,0,0,0,0,0,0,0,0,0,0,0,0,0,0],"id":7,"left_children":[1,3,5,7,9,11,13,15,17,19,-1,21,23,25,27,-1,-1,29,31,33,-1,-1,-1,35,-1,37,39,41,-1,43,-1,45,-1,47,-1,-1,-1,-1,49,51,53,-1,-1,-1,-1,-1,-1,-1,-1,-1,-1,-1,-1,-1,-1],"loss_changes":[4.3933537E1,1.2457432E1,2.5985996E1,1.1774931E1,4.7485733E0,8.817571E0,1.4308361E1,3.8072824E0,1.0251916E1,2.159954E0,0E0,5.4443307E0,4.3316746E0,9.521904E0,5.9821787E0,0E0,0E0,5.773352E0,5.6690865E0,1.7694817E0,0E0,0E0,0E0,2.4247856E0,0E0,7.143504E0,5.3004036E0,1.4121246E-1,0E0,2.0633936E0,0E0,2.590622E0,0E0,3.0966187E-1,0E0,0E0,0E0,0E0,1.9726753E-1,4.60068E-1,3.9432259E0,0E0,0E0,0E0,0E0,0E0,0E0,0E0,0E0,0E0,0E0,0E0,0E0,0E0,0E0],"parents":[2147483647,0,0,1,1,2,2,3,3,4,4,5,5,6,6,7,7,8,8,9,9,11,11,12,12,13,13,14,14,17,17,18,18,19,19,23,23,25,25,26,26,27,27,29,29,31,31,33,33,38,38,39,39,40,40],"right_children":[2,4,6,8,10,12,14,16,18,20,-1,22,24,26,28,-1,-1,30,32,34,-1,-1,-1,36,-1,38,40,42,-1,44,-1,46,-1,48,-1,-1,-1,-1,50,52,54,-1,-1,-1,-1,-1,-1,-1,-1,-1,-1,-1,-1,-1,-1],"split_conditions":[2.5975557E-2,3.3989295E-2,4.5047555E-2,2.9798934E-1,2.785968E-1,1.6057724E-1,6.119263E-2,1.582216E-1,1.764039E-2,8.202053E-2,-1.01673625E-1,5.9271365E-2,1.5918222E-1,4.499503E-2,2.1522172E-2,2.56403E-1,-1.6394788E-1,5.4846812E-2,7.1550064E-2,1.3690206E-1,2.0360861E-2,-1.5214217E-1,3.1251684E-1,2.9017422E-2,-9.828178E-2,2.311274E-1,4.2795006E-2,2.6091844E-1,-1.2036023E-1,3.708439E-2,3.1956345E-1,1.8262477E-1,-1.10927545E-1,1.1428641E-1,3.371791E-2,6.611848E-2,4.586257E-1,-1.3579386E-1,2.9234106E-2,1.6849084E-2,1.0337493E-2,4.3979856E-1,1.3561307E-1,-1.6234693E-1,1.7689614E-1,1.13760615E-2,4.4318E-1,4.593396E-1,1.3770229E-1,4.4773582E-1,1.328443E-1,3.2493597E-1,4.0922564E-2,2.0973213E-1,-1.6694427E-1],"split_indices":[29815,37487,26273,7586,30681,56639,26240,14036,41839,49593,0,33358,33089,18209,25772,0,0,207,48185,57286,0,0,0,55562,0,24660,33381,21977,0,25775,0,55764,0,51506,0,0,0,0,111,55,32225,0,0,0,0,0,0,0,0,0,0,0,0,0,0],"split_type":[0,0,0,0,0,0,0,0,0,0,0,0,0,0,0,0,0,0,0,0,0,0,0,0,0,0,0,0,0,0,0,0,0,0,0,0,0,0,0,0,0,0,0,0,0,0,0,0,0,0,0,0,0,0,0],"sum_hessian":[2.5732007E2,6.893608E1,1.8838399E2,4.4465908E1,2.4470173E1,2.321133E1,1.6517267E2,1.45289955E1,2.993691E1,2.3058662E1,1.4115113E0,8.959753E0,1.4251577E1,1.5714891E2,8.023749E0,1.3349648E0,1.3194031E1,1.2506195E1,1.7430716E1,2.1703796E1,1.3548666E0,6.747551E0,2.2122023E0,1.29176235E1,1.333953E0,7.713526E0,1.494354E2,5.731407E0,2.2923424E0,9.726744E0,2.779451E0,1.5708897E1,1.7218189E0,2.0543413E1,1.1603813E0,2.0310698E0,1.0886554E1,3.3687377E0,4.344788E0,2.2023463E0,1.4723305E2,4.382488E0,1.3489194E0,8.6442795E0,1.0824645E0,1.4201168E0,1.428878E1,1.919516E1,1.3482533E0,2.9763916E0,1.3683964E0,1.0832123E0,1.1191342E0,1.7330511E0,1.4549998E2],"tree_param":{"num_deleted":"0","num_feature":"57600","num_nodes":"55","size_leaf_vector":"1"}},{"base_weights":[-6.983771E-4,-2.9596013E-1,7.1204656E-1,-4.3817794E-1,3.4833837E-1,-2.7339524E-1,9.767955E-1,-4.6737415E-1,2.9286727E-1,-4.0972963E-1,8.508478E-1,-1.6507892E-1,3.2434872E-1,2.1688048E-2,1.1566103E0,-5.210084E-1,1.4711548E-1,-1.6055676E-1,1.6735794E-1,1.138787E0,-1.3428514E-1,3.2636395E-1,-3.9831853E-1,1.2963656E0,-2.9805392E-1,5.533202E-1,-5.4784983E-1,-3.997728E-1,1.0883312E0,-1.1530648E-1,1.3668071E0,-1.500846E-1,4.2715553E-2,-1.0869792E-1,1.3660054E0,4.5718804E-2,-1.324037E-1,-9.1871485E-2,3.08945E-1,-1.6859499E-1,1.948375E-1,-1.5133984E-1,6.196809E-2,1.1983165E-2,4.493554E-1,4.4836572E-1,1.4828092E-2,4.2565686E-1,-9.423198E-2],"categories":[],"categories_nodes":[],"categories_segments":[],"categories_sizes":[],"default_left":[0,0,0,0,0,0,0,0,0,0,0,0,0,0,0,0,0,0,0,0,0,0,0,0,0,0,0,0,0,0,0,0,0,0,0,0,0,0,0,0,0,0,0,0,0,0,0,0,0],"id":8,"left_children":[1,3,5,7,9,11,13,15,-1,17,19,-1,-1,21,23,25,27,-1,-1,29,-1,-1,31,33,35,37,39,41,43,-1,45,-1,-1,-1,47,-1,-1,-1,-1,-1,-1,-1,-1,-1,-1,-1,-1,-1,-1],"loss_changes":[5.466774E1,1.6983158E1,2.0118877E1,6.688036E0,1.3212725E1,6.9310904E0,1.0313194E1,4.971924E0,0E0,2.014666E0,8.223976E0,0E0,0E0,5.160605E0,1.0681328E1,4.248806E0,6.974015E0,0E0,0E0,6.488655E0,0E0,0E0,5.291139E-1,5.853279E0,4.0624037E-1,1.8851815E0,2.6324806E0,6.606691E-1,2.0598936E0,0E0,2.4763641E0,0E0,0E0,0E0,4.417351E0,0E0,0E0,0E0,0E0,0E0,0E0,0E0,0E0,0E0,0E0,0E0,0E0,0E0,0E0],"parents":[2147483647,0,0,1,1,2,2,3,3,4,4,5,5,6,6,7,7,9,9,10,10,13,13,14,14,15,15,16,16,19,19,22,22,23,23,24,24,25,25,26,26,27,27,28,28,30,30,34,34],"right_children":[2,4,6,8,10,12,14,16,-1,18,20,-1,-1,22,24,26,28,-1,-1,30,-1,-1,32,34,36,38,40,42,44,-1,46,-1,-1,-1,48,-1,-1,-1,-1,-1,-1,-1,-1,-1,-1,-1,-1,-1,-1],"split_conditions":[1.6575237E-1,1.7491415E-1,2.185519E-1,1.6575848E-1,1.9148679E-1,5.3409E-2,1.3108855E-1,5.7663053E-2,2.9286727E-1,1.6546986E-1,3.447903E-2,-1.6507892E-1,3.2434872E-1,1.4918686E-1,2.480157E-2,7.210659E-2,1.06123626E-1,-1.6055676E-1,1.6735794E-1,2.1971625E-1,-1.3428514E-1,3.2636395E-1,1.3660899E-2,1.2547544E-1,1.843442E-2,2.3247258E-1,3.3840558E-1,1.9355005E-1,3.0101815E-2,-1.1530648E-1,4.4599155E-1,-1.500846E-1,4.2715553E-2,-1.0869792E-1,2.637749E-2,4.5718804E-2,-1.324037E-1,-9.1871485E-2,3.08945E-1,-1.6859499E-1,1.948375E-1,-1.5133984E-1,6.196809E-2,1.1983165E-2,4.493554E-1,4.4836572E-1,1.4828092E-2,4.2565686E-1,-9.423198E-2],"split_indices":[25043,24484,37529,42182,22015,42060,19649,30816,0,42213,33452,0,0,23123,18458,50387,14663,0,0,29719,0,0,1370,14739,591,2649,19095,1183,1487,0,31925,0,0,0,33552,0,0,0,0,0,0,0,0,0,0,0,0,0,0],"split_type":[0,0,0,0,0,0,0,0,0,0,0,0,0,0,0,0,0,0,0,0,0,0,0,0,0,0,0,0,0,0,0,0,0,0,0,0,0,0,0,0,0,0,0,0,0,0,0,0,0],"sum_hessian":[2.5776907E2,1.8267775E2,7.509134E1,1.4990805E2,3.2769703E1,1.5894939E1,5.9196396E1,1.4753223E2,2.375811E0,1.3136729E1,1.9632975E1,1.3690424E1,2.2045152E0,9.556504E0,4.9639893E1,1.3582887E2,1.1703367E1,1.2024493E1,1.112236E0,1.6170158E1,3.4628172E0,2.251329E0,7.305175E0,4.53881E1,4.2517943E0,2.8327696E0,1.329961E2,7.7661486E0,3.937219E0,2.0162528E0,1.4153905E1,6.2090564E0,1.0961186E0,1.6594802E0,4.372862E1,1.010781E0,3.2410133E0,1.1377246E0,1.695045E0,1.3196892E2,1.027185E0,6.7659087E0,1.0002396E0,1.4142419E0,2.5229769E0,1.2780138E1,1.3737671E0,4.2545773E1,1.1828475E0],"tree_param":{"num_deleted":"0","num_feature":"57600","num_nodes":"49","size_leaf_vector":"1"}},{"base_weights":[2.4743138E-3,-3.8135782E-1,2.2814807E-1,2.1098751E-1,-4.64293E-1,4.2516297E-1,-4.3980074E-1,9.316547E-1,-1.5293497E-1,-5.312174E-2,-5.358635E-1,-2.7695024E-1,6.2787986E-1,2.3568009E-1,-5.118353E-1,-1.0081599E-1,4.0026563E-1,8.3848155E-1,-1.5769458E-1,7.453023E-2,-5.609272E-1,-4.9075446E-1,8.8891876E-1,8.602155E-1,-2.8512287E-1,-1.6918218E-1,1.9016041E-1,-1.0104171E-1,4.1090992E-1,-1.07404135E-1,1.7402035E-1,5.890133E-2,-1.7248459E-1,1.4967722E-1,-1.6954224E-1,1.5721487E-2,3.6152074E-1,1.8534079E-1,1.2075975E0,4.9654987E-1,-1.6416693E-1,3.336067E-1,-3.6279786E-2,3.9884338E-1,-8.187038E-2,-1.198908E-1,3.4676677E-1],"categories":[],"categories_nodes":[],"categories_segments":[],"categories_sizes":[],"default_left":[0,0,0,0,0,0,0,0,0,0,0,0,0,0,0,0,0,0,0,0,0,0,0,0,0,0,0,0,0,0,0,0,0,0,0,0,0,0,0,0,0,0,0,0,0,0,0],"id":9,"left_children":[1,3,5,7,9,11,13,15,-1,17,19,21,23,-1,25,-1,-1,27,-1,29,31,33,35,37,39,-1,-1,-1,-1,-1,-1,-1,-1,-1,-1,-1,-1,41,43,45,-1,-1,-1,-1,-1,-1,-1],"loss_changes":[2.2525473E1,4.8281546E0,2.1736574E1,6.9746776E0,2.4662266E0,1.8244871E1,3.7379193E0,3.8220038E0,0E0,6.2035546E0,1.1447678E0,7.6996593E0,2.120858E1,0E0,2.5243492E0,0E0,0E0,3.6600745E0,0E0,1.0224876E0,8.494358E-1,2.142136E0,1.2251318E0,1.8303436E1,4.5328026E0,0E0,0E0,0E0,0E0,0E0,0E0,0E0,0E0,0E0,0E0,0E0,0E0,8.091731E0,9.744347E0,3.8577213E0,0E0,0E0,0E0,0E0,0E0,0E0,0E0],"parents":[2147483647,0,0,1,1,2,2,3,3,4,4,5,5,6,6,7,7,9,9,10,10,11,11,12,12,14,14,17,17,19,19,20,20,21,21,22,22,23,23,24,24,37,37,38,38,39,39],"right_children":[2,4,6,8,10,12,14,16,-1,18,20,22,24,-1,26,-1,-1,28,-1,30,32,34,36,38,40,-1,-1,-1,-1,-1,-1,-1,-1,-1,-1,-1,-1,42,44,46,-1,-1,-1,-1,-1,-1,-1],"split_conditions":[2.8070007E-2,1.0326327E-1,2.6310197E-1,1.05527475E-1,5.612201E-2,8.421038E-2,8.0348656E-2,3.870817E-2,-1.5293497E-1,2.6995927E-4,2.2911703E-2,9.3641065E-2,1.8602662E-1,2.3568009E-1,1.1614948E-1,-1.0081599E-1,4.0026563E-1,2.1204162E-2,-1.5769458E-1,2.3915302E-2,8.122812E-2,2.6223518E-2,1.6598205E-1,1.306907E-1,1.19487196E-1,-1.6918218E-1,1.9016041E-1,-1.0104171E-1,4.1090992E-1,-1.07404135E-1,1.7402035E-1,5.890133E-2,-1.7248459E-1,1.4967722E-1,-1.6954224E-1,1.5721487E-2,3.6152074E-1,8.936796E-2,3.5441056E-1,3.724399E-1,-1.6416693E-1,3.336067E-1,-3.6279786E-2,3.9884338E-1,-8.187038E-2,-1.198908E-1,3.4676677E-1],"split_indices":[7991,23251,19609,52115,13938,37830,21447,4682,0,47136,19630,24313,52136,0,31439,0,0,1327,0,4591,20273,53217,296,27073,12136,0,0,0,0,0,0,0,0,0,0,0,0,20486,30152,16227,0,0,0,0,0,0,0],"split_type":[0,0,0,0,0,0,0,0,0,0,0,0,0,0,0,0,0,0,0,0,0,0,0,0,0,0,0,0,0,0,0,0,0,0,0,0,0,0,0,0,0,0,0,0,0,0,0],"sum_hessian":[2.5804233E2,9.528652E1,1.627558E2,1.1513068E1,8.377345E1,1.259652E2,3.67906E1,5.6106467E0,5.902422E0,1.2678421E1,7.109503E1,2.8139027E1,9.782618E1,1.4926583E0,3.529794E1,1.3920819E0,4.218565E0,4.123463E0,8.554958E0,2.7262797E0,6.836875E1,2.4267727E1,3.8712995E0,7.80279E1,1.9798275E1,3.424815E1,1.0497895E0,1.3975173E0,2.7259457E0,1.626469E0,1.0998106E0,1.006512E0,6.7362236E1,1.2975241E0,2.2970203E1,1.3815541E0,2.4897454E0,2.7036467E1,5.0991436E1,4.7468963E0,1.5051378E1,6.06251E0,2.0973957E1,4.7207165E1,3.7842722E0,2.1790187E0,2.5678778E0],"tree_param":{"num_deleted":"0","num_feature":"57600","num_nodes":"47","size_leaf_vector":"1"}},{"base_weights":[5.089741E-3,3.274353E-1,-3.362694E-1,5.9497786E-1,-2.3919687E-1,-1.6592722E-2,-4.846121E-1,-4.6888757E-1,7.6426977E-1,-5.306949E-1,3.2691646E-1,-2.3404922E-1,9.492093E-1,-1.9479297E-2,-5.484606E-1,-1.6243422E-1,6.1465632E-2,9.5081127E-1,-2.570511E-1,5.6990623E-2,-1.6907062E-1,9.8016113E-1,-1.5138921E-1,-1.6763295E-1,4.0283677E-1,3.8827056E-1,-1.0222129E-1,-4.1398773E-1,3.6370653E-1,-1.7196406E-1,1.4421977E-1,6.6769734E-2,1.1902492E0,-1.6166887E-1,2.3777927E-1,4.612377E-1,-1.8240091E-1,1.0775784E0,-1.4621544E-1,-1.5359226E-1,6.1395127E-2,-1.3422523E-1,3.1866407E-1,3.9512876E-1,-1.3797364E-1,-1.113163E-1,4.6320688E-2,4.4991326E-1,-1.0418221E-1],"categories":[],"categories_nodes":[],"categories_segments":[],"categories_sizes":[],"default_left":[0,0,0,0,0,0,0,0,0,0,0,0,0,0,0,0,0,0,0,0,0,0,0,0,0,0,0,0,0,0,0,0,0,0,0,0,0,0,0,0,0,0,0,0,0,0,0,0,0],"id":10,"left_children":[1,3,5,7,9,11,13,15,17,19,21,23,25,27,29,-1,-1,31,33,-1,-1,35,-1,-1,37,-1,-1,39,-1,-1,-1,41,43,-1,-1,-1,45,47,-1,-1,-1,-1,-1,-1,-1,-1,-1,-1,-1],"loss_changes":[2.8569983E1,2.038562E1,5.9723005E0,1.6746334E1,7.358634E0,8.834454E0,2.5464E0,7.5193715E-1,1.5272594E1,7.970066E-1,8.869798E0,7.31325E0,3.8831167E0,6.0562844E0,2.2033806E0,0E0,0E0,1.4083786E1,4.263979E0,0E0,0E0,6.095064E0,0E0,0E0,7.826184E0,0E0,0E0,6.7473483E-1,0E0,0E0,0E0,8.316513E0,1.1614014E1,0E0,0E0,0E0,2.9887146E-1,4.8668413E0,0E0,0E0,0E0,0E0,0E0,0E0,0E0,0E0,0E0,0E0,0E0],"parents":[2147483647,0,0,1,1,2,2,3,3,4,4,5,5,6,6,7,7,8,8,9,9,10,10,11,11,12,12,13,13,14,14,17,17,18,18,21,21,24,24,27,27,31,31,32,32,36,36,37,37],"right_children":[2,4,6,8,10,12,14,16,18,20,22,24,26,28,30,-1,-1,32,34,-1,-1,36,-1,-1,38,-1,-1,40,-1,-1,-1,42,44,-1,-1,-1,46,48,-1,-1,-1,-1,-1,-1,-1,-1,-1,-1,-1],"split_conditions":[7.913106E-2,4.682129E-3,1.3739643E-1,5.7217427E-2,1.1317429E-1,1.5274836E-1,1.2087212E-1,6.872093E-2,2.0327355E-1,9.0557374E-2,1.877285E-1,1.279336E-1,2.2822E-2,6.0890768E-2,1.7860231E-1,-1.6243422E-1,6.1465632E-2,1.1016839E-1,2.4472134E-1,5.6990623E-2,-1.6907062E-1,1.1295548E-2,-1.5138921E-1,-1.6763295E-1,3.7715027E-1,3.8827056E-1,-1.0222129E-1,8.669373E-5,3.6370653E-1,-1.7196406E-1,1.4421977E-1,2.395773E-2,2.7656138E-1,-1.6166887E-1,2.3777927E-1,4.612377E-1,2.3536107E-3,1.07868224E-1,-1.4621544E-1,-1.5359226E-1,6.1395127E-2,-1.3422523E-1,3.1866407E-1,3.9512876E-1,-1.3797364E-1,-1.113163E-1,4.6320688E-2,4.4991326E-1,-1.0418221E-1],"split_indices":[16387,23667,21569,33460,45958,55717,16612,8375,20072,13505,2865,53541,8288,53998,15303,0,0,54739,304,0,0,23200,0,0,57571,0,0,49920,0,0,0,55712,28056,0,0,0,2063,14535,0,0,0,0,0,0,0,0,0,0,0],"split_type":[0,0,0,0,0,0,0,0,0,0,0,0,0,0,0,0,0,0,0,0,0,0,0,0,0,0,0,0,0,0,0,0,0,0,0,0,0,0,0,0,0,0,0,0,0,0,0,0,0],"sum_hessian":[2.5764243E2,1.3253261E2,1.2510981E2,8.999181E1,4.2540794E1,4.0007023E1,8.510278E1,1.2111424E1,7.788039E1,2.812268E1,1.4418116E1,3.327305E1,6.7339764E0,1.0429503E1,7.467328E1,1.1111231E1,1.0001937E0,6.5910965E1,1.1969421E1,1.0184042E0,2.7104275E1,7.9746723E0,6.443443E0,2.2118298E1,1.1154751E1,5.3102922E0,1.4236836E0,8.402452E0,2.0270514E0,7.335215E1,1.3211336E0,1.4319616E1,5.159135E1,9.819378E0,2.1500437E0,5.1726046E0,2.802068E0,6.225605E0,4.9291463E0,7.4023995E0,1.0000525E0,9.80531E0,4.514306E0,4.8096085E1,3.495268E0,1.7308649E0,1.0712031E0,4.7621994E0,1.4634057E0],"tree_param":{"num_deleted":"0","num_feature":"57600","num_nodes":"49","size_leaf_vector":"1"}},{"base_weights":[-6.3354196E-3,7.378881E-1,-4.093778E-1,1.1474562E0,-3.715071E-1,2.1830635E-1,-5.065424E-1,1.2636006E0,7.017095E-3,5.477677E-1,-5.114215E-1,1.041996E0,-2.9094157E-1,1.7072164E-1,-5.56269E-1,1.3499235E0,-6.7287795E-2,2.8245622E-1,-1.430463E-1,-9.304234E-2,3.10265E-1,5.785973E-2,-1.6605255E-1,4.39264E-1,-1.1375837E-1,2.9259798E-1,-1.6078234E-1,3.465979E-1,-1.497881E-1,1.07134275E-1,-5.69615E-1,1.3844473E0,-8.842867E-2,-1.2681338E-1,1.6638848E-1,4.2292528E-2,-1.7294115E-1,4.2571035E-1,9.7578345E-3],"categories":[],"categories_nodes":[],"categories_segments":[],"categories_sizes":[],"default_left":[0,0,0,0,0,0,0,0,0,0,0,0,0,0,0,0,0,0,0,0,0,0,0,0,0,0,0,0,0,0,0,0,0,0,0,0,0,0,0],"id":11,"left_children":[1,3,5,7,9,11,13,15,17,19,21,23,25,27,29,31,33,-1,-1,-1,-1,-1,-1,-1,-1,-1,-1,-1,-1,-1,35,37,-1,-1,-1,-1,-1,-1,-1],"loss_changes":[7.818541E1,4.2035076E1,1.0422375E1,8.882484E0,3.5531473E0,1.0103179E1,5.0359955E0,7.08934E0,3.7089465E0,1.9250916E0,7.7673054E-1,6.0422087E0,5.244214E0,7.7019277E0,1.8723984E0,3.6589966E0,1.2651725E0,0E0,0E0,0E0,0E0,0E0,0E0,0E0,0E0,0E0,0E0,0E0,0E0,0E0,7.405052E-1,2.5841599E0,0E0,0E0,0E0,0E0,0E0,0E0,0E0],"parents":[2147483647,0,0,1,1,2,2,3,3,4,4,5,5,6,6,7,7,8,8,9,9,10,10,11,11,12,12,13,13,14,14,15,15,16,16,30,30,31,31],"right_children":[2,4,6,8,10,12,14,16,18,20,22,24,26,28,30,32,34,-1,-1,-1,-1,-1,-1,-1,-1,-1,-1,-1,-1,-1,36,38,-1,-1,-1,-1,-1,-1,-1],"split_conditions":[7.958467E-2,2.616934E-1,1.06668375E-1,4.7305908E-2,1.9371423E-1,6.104443E-2,1.6683996E-1,7.247959E-2,2.3908785E-4,7.80768E-2,8.117917E-2,9.012704E-2,2.2293371E-1,4.6501644E-2,5.029977E-2,2.6141081E-3,9.273993E-2,2.8245622E-1,-1.430463E-1,-9.304234E-2,3.10265E-1,5.785973E-2,-1.6605255E-1,4.39264E-1,-1.1375837E-1,2.9259798E-1,-1.6078234E-1,3.465979E-1,-1.497881E-1,1.07134275E-1,1.0594987E-2,2.4711749E-2,-8.842867E-2,-1.2681338E-1,1.6638848E-1,4.2292528E-2,-1.7294115E-1,4.2571035E-1,9.7578345E-3],"split_indices":[29876,33992,32403,31712,20296,33586,26969,1930,14048,4577,29249,27892,50210,34798,41990,55744,4803,0,0,0,0,0,0,0,0,0,0,0,0,0,32430,57575,0,0,0,0,0,0,0],"split_type":[0,0,0,0,0,0,0,0,0,0,0,0,0,0,0,0,0,0,0,0,0,0,0,0,0,0,0,0,0,0,0,0,0,0,0,0,0,0,0],"sum_hessian":[2.5865125E2,9.05741E1,1.6807715E2,6.6126945E1,2.4447151E1,2.236329E1,1.4571385E2,5.9916904E1,6.2100425E0,2.844303E0,2.1602848E1,8.1442E0,1.4219091E1,9.800483E0,1.3591338E2,5.625391E1,3.6629946E0,1.7957399E0,4.414303E0,1.1603429E0,1.6839601E0,1.0161381E0,2.058671E1,6.255501E0,1.8887E0,1.821877E0,1.2397214E1,3.675262E0,6.125221E0,1.5863724E0,1.3432701E2,5.5252335E1,1.0015775E0,2.534718E0,1.1282768E0,1.0966033E0,1.3323041E2,5.382563E1,1.4267032E0],"tree_param":{"num_deleted":"0","num_feature":"57600","num_nodes":"39","size_leaf_vector":"1"}},{"base_weights":[-1.6744704E-3,-2.5773078E-1,6.337887E-1,-3.5569233E-1,3.3750412E-1,-1.8848048E-1,8.450479E-1,-4.6453086E-1,-9.572686E-3,7.134306E-1,-3.3704928E-1,4.9956563E-1,-1.5504576E-1,-2.380085E-1,9.158393E-1,-4.923379E-1,3.6709163E-1,-4.384145E-1,4.0798035E-1,-1.195025E-1,9.362404E-1,-1.5156907E-1,1.4220323E-1,-9.8864414E-2,2.641941E-1,3.3208564E-2,-1.1683089E-1,9.665619E-1,-1.08254924E-1,-5.1559544E-1,1.524501E-1,2.287086E-1,-9.4510324E-2,1.7508991E-1,-1.6055109E-1,8.618778E-1,-2.9459304E-1,3.2117787E-1,-8.928688E-2,1.0136861E0,-3.490938E-2,-1.5948796E-1,1.5558088E-1,3.4120458E-1,-1.10150196E-1,-1.4816643E-1,1.4868508E-1,-9.956599E-3,3.1501356E-1],"categories":[],"categories_nodes":[],"categories_segments":[],"categories_sizes":[],"default_left":[0,0,0,0,0,0,0,0,0,0,0,0,0,0,0,0,0,0,0,0,0,0,0,0,0,0,0,0,0,0,0,0,0,0,0,0,0,0,0,0,0,0,0,0,0,0,0,0,0],"id":12,"left_children":[1,3,5,7,9,11,13,15,17,19,21,23,-1,25,27,29,31,33,35,-1,37,-1,-1,-1,-1,-1,-1,39,-1,41,-1,-1,-1,-1,-1,43,45,-1,-1,47,-1,-1,-1,-1,-1,-1,-1,-1,-1],"loss_changes":[3.903941E1,1.0091748E1,1.2129887E1,5.5456886E0,6.4989305E0,3.6250412E0,4.4354515E0,2.7722206E0,6.6729374E0,4.3782187E0,1.5368648E0,1.9720572E0,0E0,2.632231E-1,3.7057037E0,2.7952366E0,1.3722515E0,2.129283E0,6.2788725E0,0E0,2.600994E0,0E0,0E0,0E0,0E0,0E0,0E0,2.6761742E0,0E0,2.047844E0,0E0,0E0,0E0,0E0,0E0,4.3898687E0,1.5299449E0,0E0,0E0,1.8673096E0,0E0,0E0,0E0,0E0,0E0,0E0,0E0,0E0,0E0],"parents":[2147483647,0,0,1,1,2,2,3,3,4,4,5,5,6,6,7,7,8,8,9,9,10,10,11,11,13,13,14,14,15,15,16,16,17,17,18,18,20,20,27,27,29,29,35,35,36,36,39,39],"right_children":[2,4,6,8,10,12,14,16,18,20,22,24,-1,26,28,30,32,34,36,-1,38,-1,-1,-1,-1,-1,-1,40,-1,42,-1,-1,-1,-1,-1,44,46,-1,-1,48,-1,-1,-1,-1,-1,-1,-1,-1,-1],"split_conditions":[1.9367465E-1,1.3735083E-1,7.1357233E-3,4.6405112E-3,1.8344492E-1,1.796874E-1,7.5780995E-2,2.0384087E-1,6.247706E-2,3.4444574E-1,4.2464903E-1,1.7886354E-1,-1.5504576E-1,1.7262775E-1,7.599927E-3,3.5707105E-2,7.369679E-2,1.19683616E-1,1.5850224E-2,-1.195025E-1,1.8596E-1,-1.5156907E-1,1.4220323E-1,-9.8864414E-2,2.641941E-1,3.3208564E-2,-1.1683089E-1,1.383898E-1,-1.08254924E-1,2.799543E-2,1.524501E-1,2.287086E-1,-9.4510324E-2,1.7508991E-1,-1.6055109E-1,1.0127306E-3,7.178523E-2,3.2117787E-1,-8.928688E-2,7.638177E-2,-3.490938E-2,-1.5948796E-1,1.5558088E-1,3.4120458E-1,-1.10150196E-1,-1.4816643E-1,1.4868508E-1,-9.956599E-3,3.1501356E-1],"split_indices":[20179,29940,27955,5134,15976,3433,48293,45727,33849,21795,7432,945,0,6739,7898,14247,771,12848,51759,0,28883,0,0,0,0,0,0,36513,0,19290,0,0,0,0,0,48012,11951,0,0,21620,0,0,0,0,0,0,0,0,0],"split_type":[0,0,0,0,0,0,0,0,0,0,0,0,0,0,0,0,0,0,0,0,0,0,0,0,0,0,0,0,0,0,0,0,0,0,0,0,0,0,0,0,0,0,0,0,0,0,0,0,0],"sum_hessian":[2.3792215E2,1.7001143E2,6.791072E1,1.463312E2,2.3680216E1,1.3903384E1,5.400734E1,1.1106448E2,3.5266727E1,1.5168966E1,8.5112505E0,4.3229613E0,9.580422E0,3.1685627E0,5.0838776E1,1.07865746E2,3.1987379E0,1.7373531E1,1.7893196E1,2.400948E0,1.2768018E1,7.3617887E0,1.1494616E0,1.403851E0,2.9191105E0,1.0408084E0,2.1277542E0,4.9129776E1,1.7090005E0,1.0588894E2,1.9768107E0,1.9507272E0,1.2480106E0,1.0673116E0,1.630622E1,1.0732635E1,7.160561E0,1.1633588E1,1.1344302E0,4.7142292E1,1.9874825E0,1.0475115E2,1.1377871E0,8.82848E0,1.9041543E0,6.0178256E0,1.1427355E0,1.5852739E0,4.555702E1],"tree_param":{"num_deleted":"0","num_feature":"57600","num_nodes":"49","size_leaf_vector":"1"}},{"base_weights":[5.7577724E-3,5.3595376E-1,-2.3037146E-1,3.079459E-1,1.0332335E0,5.7465035E-1,-3.5837576E-1,7.23894E-1,-3.1094862E-2,1.1121061E0,-2.7605083E-3,2.9889035E-1,7.018585E-2,5.095392E-1,-4.31033E-1,5.3448128E-3,9.624499E-1,8.4353274E-1,-2.8779918E-1,2.7661396E-2,3.4906077E-1,-1.4456268E-1,6.882302E-1,-2.5562775E-1,8.798331E-1,-4.7248724E-1,6.075613E-1,-1.3501185E-1,2.2653486E-1,1.0558394E0,-4.928953E-3,2.2915708E-2,2.9289266E-1,2.574527E-1,-4.5786023E-1,2.8820065E-1,-8.7605625E-2,4.2844906E-2,-1.2304098E-1,1.1182911E-2,3.0901313E-1,3.506573E-1,-5.1068616E-1,2.7532676E-1,-9.048606E-2,9.79946E-2,3.317607E-1,1.6073939E-1,-1.6203846E-1,2.8271526E-1,-1.1971756E-1,2.0720683E-1,-1.5788987E-1],"categories":[],"categories_nodes":[],"categories_segments":[],"categories_sizes":[],"default_left":[0,0,0,0,0,0,0,0,0,0,0,0,0,0,0,0,0,0,0,0,0,0,0,0,0,0,0,0,0,0,0,0,0,0,0,0,0,0,0,0,0,0,0,0,0,0,0,0,0,0,0,0,0],"id":13,"left_children":[1,3,5,7,9,11,13,15,17,19,-1,-1,21,23,25,27,29,31,33,-1,-1,-1,35,37,39,41,43,-1,-1,45,-1,-1,-1,-1,47,-1,-1,-1,-1,-1,-1,49,51,-1,-1,-1,-1,-1,-1,-1,-1,-1,-1],"loss_changes":[2.994527E1,8.038044E0,1.726057E1,7.3493295E0,1.8802338E0,4.8415203E0,9.26339E0,4.0012007E0,6.884615E0,1.0022259E0,0E0,0E0,4.2856107E0,3.493691E0,6.008007E0,2.672194E0,1.6209202E0,6.3504934E-1,4.995263E0,0E0,0E0,0E0,1.8506501E0,3.3789876E-1,9.740324E-1,4.214506E0,1.8385346E0,0E0,0E0,2.2351646E-1,0E0,0E0,0E0,0E0,2.0237274E0,0E0,0E0,0E0,0E0,0E0,0E0,3.1640565E0,2.67173E0,0E0,0E0,0E0,0E0,0E0,0E0,0E0,0E0,0E0,0E0],"parents":[2147483647,0,0,1,1,2,2,3,3,4,4,5,5,6,6,7,7,8,8,9,9,12,12,13,13,14,14,15,15,16,16,17,17,18,18,22,22,23,23,24,24,25,25,26,26,29,29,34,34,41,41,42,42],"right_children":[2,4,6,8,10,12,14,16,18,20,-1,-1,22,24,26,28,30,32,34,-1,-1,-1,36,38,40,42,44,-1,-1,46,-1,-1,-1,-1,48,-1,-1,-1,-1,-1,-1,50,52,-1,-1,-1,-1,-1,-1,-1,-1,-1,-1],"split_conditions":[2.6294947E-2,3.84269E-2,1.3486065E-2,1.0070711E-4,3.7479084E-2,1.2285252E-1,9.509784E-2,7.306334E-2,4.195287E-2,7.82609E-2,-2.7605083E-3,2.9889035E-1,2.4284853E-1,1.4908747E-1,5.8626533E-3,7.22261E-2,1.05283685E-1,6.452867E-2,6.335037E-2,2.7661396E-2,3.4906077E-1,-1.4456268E-1,1.8191832E-1,4.4909045E-2,6.347246E-2,9.590238E-2,2.559873E-3,-1.3501185E-1,2.2653486E-1,5.0929412E-2,-4.928953E-3,2.2915708E-2,2.9289266E-1,2.574527E-1,3.7529644E-2,2.8820065E-1,-8.7605625E-2,4.2844906E-2,-1.2304098E-1,1.1182911E-2,3.0901313E-1,2.8795652E-2,6.3714035E-2,2.7532676E-1,-9.048606E-2,9.79946E-2,3.317607E-1,1.6073939E-1,-1.6203846E-1,2.8271526E-1,-1.1971756E-1,2.0720683E-1,-1.5788987E-1],"split_indices":[22135,39663,29943,39776,55727,25811,24193,23986,14241,55681,0,0,32280,54722,27285,29945,46945,8481,33473,0,0,0,1154,1347,17138,46975,6573,0,0,54066,0,0,0,0,899,0,0,0,0,0,0,10167,27816,0,0,0,0,0,0,0,0,0,0],"split_type":[0,0,0,0,0,0,0,0,0,0,0,0,0,0,0,0,0,0,0,0,0,0,0,0,0,0,0,0,0,0,0,0,0,0,0,0,0,0,0,0,0,0,0,0,0,0,0,0,0,0,0,0,0],"sum_hessian":[2.3720326E2,7.269864E1,1.6450462E2,5.095466E1,2.1743977E1,2.2090113E1,1.4241452E2,2.2372322E1,2.8582336E1,2.0152376E1,1.5916008E0,1.1501637E1,1.0588475E1,1.0536739E1,1.3187778E2,5.8310738E0,1.6541248E1,5.966756E0,2.2615582E1,1.1014946E0,1.905088E1,5.7091556E0,4.8793197E0,3.537204E0,6.999535E0,1.2734021E2,4.5375624E0,3.876432E0,1.9546418E0,1.5028812E1,1.5124358E0,1.1127666E0,4.853989E0,2.399566E0,2.0216015E1,3.8337796E0,1.0455399E0,1.0095285E0,2.5276754E0,1.2479174E0,5.7516174E0,5.284536E0,1.2205568E2,3.3762293E0,1.1613327E0,1.4483232E0,1.3580489E1,1.1242403E0,1.9091776E1,2.8098345E0,2.4747014E0,1.0112048E0,1.2104447E2],"tree_param":{"num_deleted":"0","num_feature":"57600","num_nodes":"53","size_leaf_vector":"1"}},{"base_weights":[-1.5920411E-3,-2.6959822E-1,5.458691E-1,-4.8667473E-1,9.818429E-2,-2.4001671E-1,7.1895045E-1,-5.2255297E-1,4.6994638E-1,-2.9088342E-1,5.287229E-1,-1.5727086E-1,2.4276496E-1,8.222716E-1,-1.8232189E-1,-1.6749638E-1,4.0023038E-1,-1.0601224E-1,3.5401E-1,-5.1246727E-1,5.2771837E-1,-3.641244E-1,7.640507E-1,-3.010503E-1,9.1823965E-1,1.8592335E-1,-1.4573745E-1,-9.75064E-2,2.5753465E-1,4.034107E-2,-1.6311178E-1,-1.1036781E-1,2.6712424E-1,-1.3972765E-1,3.2179087E-2,9.270517E-1,-1.21474326E-1,-1.329566E-1,4.4691235E-2,9.646569E-1,-1.0552315E-1,-9.296558E-3,3.312853E-1,2.9996943E-1,-9.406089E-2],"categories":[],"categories_nodes":[],"categories_segments":[],"categories_sizes":[],"default_left":[0,0,0,0,0,0,0,0,0,0,0,0,0,0,0,0,0,0,0,0,0,0,0,0,0,0,0,0,0,0,0,0,0,0,0,0,0,0,0,0,0,0,0,0,0],"id":14,"left_children":[1,3,5,7,9,11,13,15,17,19,21,-1,-1,23,25,-1,27,-1,-1,29,31,33,35,37,39,-1,-1,-1,-1,-1,-1,-1,-1,-1,-1,41,-1,-1,-1,43,-1,-1,-1,-1,-1],"loss_changes":[3.521133E1,1.2910251E1,1.090103E1,3.7285461E0,1.030976E1,4.893017E0,6.1922836E0,3.4674835E0,2.8694723E0,6.1644387E0,6.3999767E0,0E0,0E0,6.5716515E0,2.1246693E0,0E0,1.6913743E0,0E0,0E0,6.001568E-1,2.7360904E0,3.7357277E-1,4.8304596E0,4.0819135E-1,3.5252914E0,0E0,0E0,0E0,0E0,0E0,0E0,0E0,0E0,0E0,0E0,3.5700092E0,0E0,0E0,0E0,2.6742096E0,0E0,0E0,0E0,0E0,0E0],"parents":[2147483647,0,0,1,1,2,2,3,3,4,4,5,5,6,6,7,7,8,8,9,9,10,10,13,13,14,14,16,16,19,19,20,20,21,21,22,22,23,23,24,24,35,35,39,39],"right_children":[2,4,6,8,10,12,14,16,18,20,22,-1,-1,24,26,-1,28,-1,-1,30,32,34,36,38,40,-1,-1,-1,-1,-1,-1,-1,-1,-1,-1,42,-1,-1,-1,44,-1,-1,-1,-1,-1],"split_conditions":[1.6575237E-1,1.9029734E-1,2.185519E-1,3.4356777E-2,5.244817E-2,5.3409E-2,3.6972514E-3,2.3911054E-1,5.7328507E-2,1.381788E-1,2.1759185E-1,-1.5727086E-1,2.4276496E-1,2.323087E-2,1.353768E-1,-1.6749638E-1,6.2001422E-2,-1.0601224E-1,3.5401E-1,7.2634846E-2,1.7112397E-1,2.4130659E-1,8.639615E-3,2.556716E-1,7.750378E-2,1.8592335E-1,-1.4573745E-1,-9.75064E-2,2.5753465E-1,4.034107E-2,-1.6311178E-1,-1.1036781E-1,2.6712424E-1,-1.3972765E-1,3.2179087E-2,3.984769E-2,-1.21474326E-1,-1.329566E-1,4.4691235E-2,6.0833093E-2,-1.0552315E-1,-9.296558E-3,3.312853E-1,2.9996943E-1,-9.406089E-2],"split_indices":[25043,22015,37529,26794,26615,42060,45010,49896,1143,38791,48856,0,0,33975,3647,0,2297,0,0,799,22760,21352,37466,9239,25644,0,0,0,0,0,0,0,0,0,0,38135,0,0,0,25818,0,0,0,0,0],"split_type":[0,0,0,0,0,0,0,0,0,0,0,0,0,0,0,0,0,0,0,0,0,0,0,0,0,0,0,0,0,0,0,0,0,0,0,0,0,0,0,0,0,0,0,0,0],"sum_hessian":[2.3798212E2,1.601092E2,7.787292E1,1.0047973E2,5.962948E1,1.39852705E1,6.3887646E1,9.72848E1,3.1949317E0,3.1493713E1,2.8135763E1,1.1398085E1,2.5871856E0,5.7395527E1,6.4921217E0,9.403484E1,3.2499547E0,1.7121292E0,1.4828024E0,2.5079124E1,6.41459E0,5.75472E0,2.2381042E1,4.349299E0,5.3046227E1,1.4960042E0,4.996117E0,1.3708721E0,1.8790826E0,1.0029916E0,2.4076132E1,1.8448182E0,4.5697713E0,4.7438545E0,1.0108654E0,1.9823755E1,2.5572872E0,3.316858E0,1.0324408E0,5.140772E1,1.6385078E0,3.223595E0,1.660016E1,5.0240265E1,1.1674533E0],"tree_param":{"num_deleted":"0","num_feature":"57600","num_nodes":"45","size_leaf_vector":"1"}},{"base_weights":[2.7212587E-3,-3.776225E-1,1.7649135E-1,6.079446E-1,-4.1826984E-1,3.1838334E-1,-4.115278E-1,3.4146078E-2,2.3294705E-1,-4.5719654E-3,-4.887148E-1,-2.2065872E-1,4.8754126E-1,-1.6291207E-1,2.788055E-1,5.383813E-1,-1.4577164E-1,-5.280706E-1,1.4914578E-1,-3.855131E-1,2.5681865E-1,6.6175705E-1,-2.5109655E-1,2.7916062E-1,-1.2204159E-1,-1.0722729E-1,2.9671478E-1,-1.672281E-1,-2.011187E-2,2.1926795E-1,-1.1158248E-1,-4.9217716E-1,4.553555E-1,-1.483372E-1,7.6423E-1,4.9395794E-1,-1.5914257E-1,1.6142717E-1,-1.147368E-1,-1.6644213E-1,1.1266242E-1,2.0369898E-1,7.1761454E-3,-1.4168869E-1,2.4992277E-1,2.6805246E-1,-1.0657219E-1],"categories":[],"categories_nodes":[],"categories_segments":[],"categories_sizes":[],"default_left":[0,0,0,0,0,0,0,0,0,0,0,0,0,0,0,0,0,0,0,0,0,0,0,0,0,0,0,0,0,0,0,0,0,0,0,0,0,0,0,0,0,0,0,0,0,0,0],"id":15,"left_children":[1,3,5,7,9,11,13,-1,-1,15,17,19,21,-1,23,25,-1,27,29,31,-1,33,35,-1,-1,-1,-1,-1,37,-1,-1,39,41,-1,43,45,-1,-1,-1,-1,-1,-1,-1,-1,-1,-1,-1],"loss_changes":[1.6094925E1,3.3137493E0,1.4076604E1,1.9749129E-1,2.1525402E0,1.2436876E1,3.1408587E0,0E0,0E0,3.3370109E0,1.6645584E0,6.184975E0,1.3449961E1,0E0,3.0282378E0,2.7775128E0,0E0,8.793144E-1,1.6210871E0,2.8515997E0,0E0,1.0306953E1,4.5137477E0,0E0,0E0,0E0,0E0,0E0,1.0755639E0,0E0,0E0,1.6472936E0,3.5206467E-1,0E0,6.980236E0,2.3831558E0,0E0,0E0,0E0,0E0,0E0,0E0,0E0,0E0,0E0,0E0,0E0],"parents":[2147483647,0,0,1,1,2,2,3,3,4,4,5,5,6,6,9,9,10,10,11,11,12,12,14,14,15,15,17,17,18,18,19,19,21,21,22,22,28,28,31,31,32,32,34,34,35,35],"right_children":[2,4,6,8,10,12,14,-1,-1,16,18,20,22,-1,24,26,-1,28,30,32,-1,34,36,-1,-1,-1,-1,-1,38,-1,-1,40,42,-1,44,46,-1,-1,-1,-1,-1,-1,-1,-1,-1,-1,-1],"split_conditions":[2.587657E-2,8.0404915E-3,2.6310197E-1,5.855315E-2,8.7134495E-2,8.4766224E-2,2.799999E-2,3.4146078E-2,2.3294705E-1,1.4005751E-2,2.5226654E-2,1.4393447E-2,1.837769E-1,-1.6291207E-1,6.488925E-2,7.813472E-4,-1.4577164E-1,1.1813329E-1,4.9612485E-4,3.6559135E-2,2.5681865E-1,1.6017193E-2,1.19487196E-1,2.7916062E-1,-1.2204159E-1,-1.0722729E-1,2.9671478E-1,-1.672281E-1,7.24523E-3,2.1926795E-1,-1.1158248E-1,1.9511912E-2,2.2347052E-4,-1.483372E-1,1.5519692E-1,5.9521116E-2,-1.5914257E-1,1.6142717E-1,-1.147368E-1,-1.6644213E-1,1.1266242E-1,2.0369898E-1,7.1761454E-3,-1.4168869E-1,2.4992277E-1,2.6805246E-1,-1.0657219E-1],"split_indices":[7991,14126,19609,33,31238,43590,35559,0,0,14511,19986,21594,52136,0,12274,29933,0,56946,2615,42989,0,31095,12136,0,0,0,0,0,2575,0,0,17255,608,0,46233,2186,0,0,0,0,0,0,0,0,0,0,0],"split_type":[0,0,0,0,0,0,0,0,0,0,0,0,0,0,0,0,0,0,0,0,0,0,0,0,0,0,0,0,0,0,0,0,0,0,0,0,0,0,0,0,0,0,0,0,0,0,0],"sum_hessian":[2.4151332E2,7.537069E1,1.6614262E2,2.4325552E0,7.293813E1,1.3421454E2,3.1928095E1,1.044807E0,1.3877482E0,1.0767775E1,6.2170357E1,3.1985245E1,1.02229294E2,2.6998158E1,4.929936E0,5.0043044E0,5.7634697E0,5.87195E1,3.4508553E0,2.8295015E1,3.690231E0,8.280331E1,1.9425982E1,2.3442738E0,2.5856621E0,1.7442032E0,3.260101E0,5.5419285E1,3.300218E0,1.4402804E0,2.0105748E0,2.5477835E1,2.8171804E0,6.4298053E0,7.6373505E1,5.088302E0,1.433768E1,1.1081116E0,2.1921065E0,2.4099037E1,1.3787978E0,1.4774907E0,1.3396897E0,3.7189038E0,7.26546E1,3.4247634E0,1.6635388E0],"tree_param":{"num_deleted":"0","num_feature":"57600","num_nodes":"47","size_leaf_vector":"1"}},{"base_weights":[3.213172E-3,1.655417E-1,-5.08383E-1,3.2338205E-1,-3.5369512E-1,1.2404815E-1,-5.396544E-1,-3.912797E-1,4.4666293E-1,-1.6494969E-1,1.2059068E-1,4.0279493E-2,-1.663067E-1,-1.6376236E-1,4.968468E-1,-3.4352234E-1,5.738417E-1,6.957962E-1,-1.477527E-1,1.16427075E-2,2.143083E-1,2.0694728E-1,-4.8935312E-1,7.029785E-1,-2.448534E-1,3.094601E-1,-1.03155985E-1,4.7116082E-2,-1.6294937E-1,2.4531405E-1,-4.870959E-2,2.402694E-1,-1.3781464E-1],"categories":[],"categories_nodes":[],"categories_segments":[],"categories_sizes":[],"default_left":[0,0,0,0,0,0,0,0,0,0,0,0,0,0,0,0,0,0,0,0,0,0,0,0,0,0,0,0,0,0,0,0,0],"id":16,"left_children":[1,3,5,7,9,-1,11,13,15,-1,17,-1,-1,-1,19,21,23,25,-1,-1,-1,-1,27,29,31,-1,-1,-1,-1,-1,-1,-1,-1],"loss_changes":[2.0222897E1,1.5263436E1,1.914115E0,1.2709734E1,4.119237E0,0E0,6.408005E-1,3.2183459E0,1.2438347E1,0E0,5.1269593E0,0E0,0E0,0E0,3.414961E-1,2.9766061E0,1.1304504E1,2.9425225E0,0E0,0E0,0E0,0E0,6.394782E-1,9.188484E0,3.752768E0,0E0,0E0,0E0,0E0,0E0,0E0,0E0,0E0],"parents":[2147483647,0,0,1,1,2,2,3,3,4,4,6,6,7,7,8,8,10,10,14,14,15,15,16,16,17,17,22,22,23,23,24,24],"right_children":[2,4,6,8,10,-1,12,14,16,-1,18,-1,-1,-1,20,22,24,26,-1,-1,-1,-1,28,30,32,-1,-1,-1,-1,-1,-1,-1,-1],"split_conditions":[1.7024872E-1,1.0309191E-1,2.8649658E-2,2.0342812E-1,7.247212E-2,1.2404815E-1,9.048191E-2,4.534489E-1,2.927257E-1,-1.6494969E-1,4.240732E-2,4.0279493E-2,-1.663067E-1,-1.6376236E-1,1.3247313E-1,8.226948E-2,4.2811382E-1,4.9856957E-2,-1.477527E-1,1.16427075E-2,2.143083E-1,2.0694728E-1,1.3912115E-1,3.8683794E-2,2.923053E-2,3.094601E-1,-1.03155985E-1,4.7116082E-2,-1.6294937E-1,2.4531405E-1,-4.870959E-2,2.402694E-1,-1.3781464E-1],"split_indices":[10259,23585,39225,49812,56697,0,10305,55715,27747,0,10871,0,0,0,1,25217,23907,8586,0,0,0,0,791,22432,55875,0,0,0,0,0,0,0,0],"split_type":[0,0,0,0,0,0,0,0,0,0,0,0,0,0,0,0,0,0,0,0,0,0,0,0,0,0,0,0,0,0,0,0,0],"sum_hessian":[2.414991E2,1.838426E2,5.76565E1,1.4127444E2,4.256816E1,1.4906152E0,5.6165886E1,2.0464928E1,1.2080952E2,3.0001846E1,1.2566314E1,1.0254527E0,5.514043E1,1.7759008E1,2.7059202E0,1.6512594E1,1.0429692E2,6.41393E0,6.152384E0,1.25068E0,1.4552401E0,1.5808065E0,1.49317875E1,9.020914E1,1.4087788E1,4.854165E0,1.5597651E0,1.0000575E0,1.393173E1,7.969721E1,1.0511922E1,1.932797E0,1.215499E1],"tree_param":{"num_deleted":"0","num_feature":"57600","num_nodes":"33","size_leaf_vector":"1"}},{"base_weights":[-8.501087E-3,4.7709104E-1,-4.600266E-1,7.284337E-1,-3.142836E-1,8.473771E-2,-5.2606034E-1,8.2963264E-1,-3.9841565E-1,4.4621238E-1,-5.0315094E-1,2.8348812E-1,-3.494891E-1,2.584897E-1,-5.510258E-1,9.0682036E-1,-3.3720222E-1,-1.468209E-1,3.2734837E-2,2.519895E-1,-1.0716714E-1,5.2904513E-2,-1.6243865E-1,1.4074512E-1,-1.5140602E-1,2.8411546E-1,-1.1079994E-1,3.6009997E-2,-1.6754988E-1,9.535491E-1,-1.2171345E-1,3.4554843E-2,-1.3702445E-1,2.961377E-1,-1.0415467E-1],"categories":[],"categories_nodes":[],"categories_segments":[],"categories_sizes":[],"default_left":[0,0,0,0,0,0,0,0,0,0,0,0,0,0,0,0,0,0,0,0,0,0,0,0,0,0,0,0,0,0,0,0,0,0,0],"id":17,"left_children":[1,3,5,7,9,11,13,15,17,19,21,-1,23,25,27,29,31,-1,-1,-1,-1,-1,-1,-1,-1,-1,-1,-1,-1,33,-1,-1,-1,-1,-1],"loss_changes":[5.257955E1,2.3213263E1,4.514311E0,1.0365852E1,4.325561E0,5.669643E0,2.3157444E0,7.607727E0,4.1948223E-1,2.264688E0,7.031369E-1,0E0,1.5364122E0,2.1233325E0,6.079712E-1,5.0674515E0,3.6407828E-1,0E0,0E0,0E0,0E0,0E0,0E0,0E0,0E0,0E0,0E0,0E0,0E0,3.5741272E0,0E0,0E0,0E0,0E0,0E0],"parents":[2147483647,0,0,1,1,2,2,3,3,4,4,5,5,6,6,7,7,8,8,9,9,10,10,12,12,13,13,14,14,15,15,16,16,29,29],"right_children":[2,4,6,8,10,12,14,16,18,20,22,-1,24,26,28,30,32,-1,-1,-1,-1,-1,-1,-1,-1,-1,-1,-1,-1,34,-1,-1,-1,-1,-1],"split_conditions":[2.570375E-1,1.511153E-1,1.04453504E-1,1.0503725E-1,6.2313233E-2,4.735089E-2,2.6200594E-2,2.6232367E-2,8.831642E-2,6.167415E-3,1.0193309E-1,2.8348812E-1,9.721038E-2,8.626764E-2,2.2084594E-2,1.9595766E-1,4.5614388E-2,-1.468209E-1,3.2734837E-2,2.519895E-1,-1.0716714E-1,5.2904513E-2,-1.6243865E-1,1.4074512E-1,-1.5140602E-1,2.8411546E-1,-1.1079994E-1,3.6009997E-2,-1.6754988E-1,1.0937962E-2,-1.2171345E-1,3.4554843E-2,-1.3702445E-1,2.961377E-1,-1.0415467E-1],"split_indices":[29832,32104,38163,47284,42420,48865,31033,22252,17911,14624,37527,0,14931,6,28601,31,5106,0,0,0,0,0,0,0,0,0,0,0,0,17600,0,0,0,0,0],"split_type":[0,0,0,0,0,0,0,0,0,0,0,0,0,0,0,0,0,0,0,0,0,0,0,0,0,0,0,0,0,0,0,0,0,0,0],"sum_hessian":[2.3780663E2,1.1455359E2,1.2325303E2,8.700128E1,2.7552303E1,1.3294341E1,1.09958694E2,8.007385E1,6.92743E0,5.210213E0,2.2342089E1,4.0650687E0,9.229273E0,3.1026518E0,1.0685604E2,7.531453E1,4.7593226E0,5.9046063E0,1.0228237E0,3.466074E0,1.7441394E0,1.0001451E0,2.1341944E1,1.1484551E0,8.080817E0,1.2372425E0,1.8654094E0,1.0110872E0,1.05844955E2,7.298946E1,2.3250651E0,1.0024297E0,3.7568927E0,7.1387794E1,1.6016743E0],"tree_param":{"num_deleted":"0","num_feature":"57600","num_nodes":"35","size_leaf_vector":"1"}},{"base_weights":[-1.6629263E-3,-2.5290564E-1,4.9460605E-1,-3.4011683E-1,2.710803E-1,-8.928816E-2,6.905155E-1,-4.2930168E-1,9.2616424E-2,-1.3585201E-1,4.90992E-1,-1.5099901E-1,3.7714928E-1,7.56525E-1,-2.7318943E-1,-4.6705028E-1,3.4892622E-1,5.4834914E-1,-3.8956186E-1,6.5803754E-1,-1.1572513E-1,-2.7429157E-1,2.3252161E-1,7.8613716E-1,-8.9022085E-2,-1.1582479E-1,1.3287594E-2,4.3076694E-1,-4.926352E-1,2.8848308E-1,-1.1292542E-1,8.0991083E-1,-1.157916E-1,-1.504945E-1,1.0256087E-1,-9.441943E-2,7.826137E-1,1.6446019E-2,-1.1671228E-1,-2.417601E-2,8.1615114E-1,1.2453839E-2,1.9121005E-1,-1.5312195E-1,1.7230098E-1,2.8859156E-1,-6.7641134E-3,-3.0641076E-3,2.5974146E-1,-1.0685686E-2,2.5229353E-1],"categories":[],"categories_nodes":[],"categories_segments":[],"categories_sizes":[],"default_left":[0,0,0,0,0,0,0,0,0,0,0,0,0,0,0,0,0,0,0,0,0,0,0,0,0,0,0,0,0,0,0,0,0,0,0,0,0,0,0,0,0,0,0,0,0,0,0,0,0,0,0],"id":18,"left_children":[1,3,5,7,9,11,13,15,17,-1,19,-1,21,23,25,27,29,31,33,35,-1,37,-1,39,-1,-1,-1,41,43,-1,-1,45,-1,-1,-1,-1,47,-1,-1,-1,49,-1,-1,-1,-1,-1,-1,-1,-1,-1,-1],"loss_changes":[2.677205E1,6.6062126E0,8.317148E0,4.7732353E0,3.5490067E0,3.8623989E0,3.651535E0,3.1555824E0,4.9998474E0,0E0,2.6714294E0,0E0,2.6788754E0,1.8222809E0,1.6785485E-1,2.4537773E0,2.71068E0,3.1505868E0,1.0870932E0,1.9713745E0,0E0,1.8547067E-1,0E0,1.3619804E0,0E0,0E0,0E0,2.3388374E-1,2.1010685E0,0E0,0E0,1.2110357E0,0E0,0E0,0E0,0E0,8.60064E-1,0E0,0E0,0E0,1.0503006E0,0E0,0E0,0E0,0E0,0E0,0E0,0E0,0E0,0E0,0E0],"parents":[2147483647,0,0,1,1,2,2,3,3,4,4,5,5,6,6,7,7,8,8,10,10,12,12,13,13,14,14,15,15,16,16,17,17,18,18,19,19,21,21,23,23,27,27,28,28,31,31,36,36,40,40],"right_children":[2,4,6,8,10,12,14,16,18,-1,20,-1,22,24,26,28,30,32,34,36,-1,38,-1,40,-1,-1,-1,42,44,-1,-1,46,-1,-1,-1,-1,48,-1,-1,-1,50,-1,-1,-1,-1,-1,-1,-1,-1,-1,-1],"split_conditions":[3.4455683E-2,1.9804892E-1,1.7014244E-1,1.5972737E-2,2.4574475E-1,1.5455941E-2,6.9570534E-2,1.7719634E-1,8.650365E-2,-1.3585201E-1,1.8953077E-2,-1.5099901E-1,1.5232584E-2,2.5195026E-5,2.2238E-1,2.3412783E-1,8.406722E-2,2.5587922E-2,4.5330697E-1,1.2945803E-1,-1.1572513E-1,7.36457E-2,2.3252161E-1,1.0228206E-2,-8.9022085E-2,-1.1582479E-1,1.3287594E-2,9.44495E-3,9.1676645E-2,2.8848308E-1,-1.1292542E-1,1.5837543E-1,-1.157916E-1,-1.504945E-1,1.0256087E-1,-9.441943E-2,1.01468734E-1,1.6446019E-2,-1.1671228E-1,-2.417601E-2,4.8057675E-2,1.2453839E-2,1.9121005E-1,-1.5312195E-1,1.7230098E-1,2.8859156E-1,-6.7641134E-3,-3.0641076E-3,2.5974146E-1,-1.0685686E-2,2.5229353E-1],"split_indices":[29875,37523,20179,22508,56328,55840,56183,27617,25569,0,53964,0,15727,54096,130,3171,9863,6095,32885,16339,0,38211,0,29984,0,0,0,559,57395,0,0,223,0,0,0,0,1055,0,0,0,42375,0,0,0,0,0,0,0,0,0,0],"split_type":[0,0,0,0,0,0,0,0,0,0,0,0,0,0,0,0,0,0,0,0,0,0,0,0,0,0,0,0,0,0,0,0,0,0,0,0,0,0,0,0,0,0,0,0,0,0,0,0,0,0,0],"sum_hessian":[2.1271605E2,1.415466E2,7.116945E1,1.21650276E2,1.989633E1,1.8016571E1,5.3152874E1,1.0086937E2,2.0780903E1,4.389031E0,1.5507299E1,9.50245E0,8.51412E0,4.994673E1,3.2061446E0,9.658432E1,4.2850504E0,1.0612871E1,1.0168031E1,1.3235076E1,2.2722242E0,3.3464022E0,5.167718E0,4.882758E1,1.1191515E0,2.2057297E0,1.0004148E0,2.2372923E0,9.434703E1,2.1463454E0,2.138705E0,8.395672E0,2.2171996E0,9.089315E0,1.0787148E0,1.3292259E0,1.1905849E1,1.000148E0,2.346254E0,1.5778726E0,4.7249706E1,1.1921324E0,1.0451598E0,9.331443E1,1.0325991E0,6.967392E0,1.4282798E0,1.2139454E0,1.0691904E1,1.3259087E0,4.5923798E1],"tree_param":{"num_deleted":"0","num_feature":"57600","num_nodes":"51","size_leaf_vector":"1"}},{"base_weights":[1.03754E-2,3.8034984E-1,-2.570767E-1,1.7206669E-1,7.050735E-1,3.9064226E-1,-4.0138233E-1,6.680713E-1,-6.48721E-2,8.138462E-1,8.982746E-2,-2.591674E-1,6.172364E-1,2.142589E-1,-4.5046514E-1,-1.04909524E-1,7.950628E-1,-3.1588662E-1,5.1342654E-1,8.702506E-1,-2.3178134E-2,-1.2677246E-1,1.94781E-1,1.14772566E-1,-1.3681155E-1,7.193097E-1,-9.5942676E-2,2.0072845E-1,-4.8613542E-1,8.670794E-1,-4.7784937E-3,1.9382583E-1,-4.4733772E-1,-1.09709926E-1,7.1459955E-1,1.9254062E-2,9.035817E-1,-2.485767E-2,8.1443274E-1,-5.184409E-1,1.8883987E-1,2.7487335E-1,7.031656E-2,1.4194717E-1,-1.5953016E-1,2.5420126E-1,-1.51018575E-2,7.015596E-2,2.8081316E-1,1.15598235E-2,2.6259145E-1,1.8762337E-1,-1.6137858E-1],"categories":[],"categories_nodes":[],"categories_segments":[],"categories_sizes":[],"default_left":[0,0,0,0,0,0,0,0,0,0,0,0,0,0,0,0,0,0,0,0,0,0,0,0,0,0,0,0,0,0,0,0,0,0,0,0,0,0,0,0,0,0,0,0,0,0,0,0,0,0,0,0,0],"id":19,"left_children":[1,3,5,7,9,11,13,15,17,19,21,23,25,-1,27,-1,29,31,33,35,-1,-1,-1,-1,-1,37,-1,-1,39,41,-1,-1,43,-1,45,-1,47,-1,49,51,-1,-1,-1,-1,-1,-1,-1,-1,-1,-1,-1,-1,-1],"loss_changes":[2.1193743E1,5.9561005E0,1.1778832E1,6.632403E0,2.255148E0,3.5703244E0,5.9166107E0,2.6320362E0,5.8021703E0,1.5469456E0,2.0948875E0,1.0200241E0,1.9008799E0,0E0,4.258312E0,0E0,9.773817E-1,3.7933064E0,2.408526E0,6.880741E-1,0E0,0E0,0E0,0E0,0E0,1.2929783E0,0E0,0E0,3.7870579E0,2.5714302E-1,0E0,0E0,2.1923265E0,0E0,1.0802093E0,0E0,3.5918617E-1,0E0,6.487675E-1,2.428896E0,0E0,0E0,0E0,0E0,0E0,0E0,0E0,0E0,0E0,0E0,0E0,0E0,0E0],"parents":[2147483647,0,0,1,1,2,2,3,3,4,4,5,5,6,6,7,7,8,8,9,9,10,10,11,11,12,12,14,14,16,16,17,17,18,18,19,19,25,25,28,28,29,29,32,32,34,34,36,36,38,38,39,39],"right_children":[2,4,6,8,10,12,14,16,18,20,22,24,26,-1,28,-1,30,32,34,36,-1,-1,-1,-1,-1,38,-1,-1,40,42,-1,-1,44,-1,46,-1,48,-1,50,52,-1,-1,-1,-1,-1,-1,-1,-1,-1,-1,-1,-1,-1],"split_conditions":[2.6593745E-2,2.9266195E-2,2.2132857E-2,5.198486E-2,1.0346045E-3,8.786292E-3,6.3339695E-2,4.0177926E-2,6.449901E-3,1.9000383E-1,9.170496E-2,4.5219447E-2,2.9742584E-1,2.142589E-1,1.5568519E-3,-1.04909524E-1,2.6486653E-1,2.9257314E-2,3.9927684E-2,2.965655E-2,-2.3178134E-2,-1.2677246E-1,1.94781E-1,1.14772566E-1,-1.3681155E-1,1.3514616E-1,-9.5942676E-2,2.0072845E-1,1.2427137E-2,2.8750744E-1,-4.7784937E-3,1.9382583E-1,7.181749E-2,-1.09709926E-1,9.54925E-2,1.9254062E-2,7.8017384E-2,-2.485767E-2,5.3087983E-2,1.6772553E-2,1.8883987E-1,2.7487335E-1,7.031656E-2,1.4194717E-1,-1.5953016E-1,2.5420126E-1,-1.51018575E-2,7.015596E-2,2.8081316E-1,1.15598235E-2,2.6259145E-1,1.8762337E-1,-1.6137858E-1],"split_indices":[28343,29871,28023,22305,45824,21551,30256,55598,26027,35393,15854,12961,48532,0,20215,0,4720,50866,46538,44170,0,0,0,0,0,53809,0,0,34362,87,0,0,17601,0,54258,0,34497,0,17283,24377,0,0,0,0,0,0,0,0,0,0,0,0,0],"split_type":[0,0,0,0,0,0,0,0,0,0,0,0,0,0,0,0,0,0,0,0,0,0,0,0,0,0,0,0,0,0,0,0,0,0,0,0,0,0,0,0,0,0,0,0,0,0,0,0,0,0,0,0,0],"sum_hessian":[2.1219727E2,8.885684E1,1.2334043E2,5.506629E1,3.379055E1,2.216141E1,1.0117902E2,1.7213072E1,3.7853218E1,2.8439735E1,5.3508143E0,5.6926637E0,1.6468746E1,3.6929524E0,9.748607E1,1.7149485E0,1.5498124E1,2.6712317E1,1.1140901E1,2.6768757E1,1.6709789E0,2.9205167E0,2.4302976E0,1.1149553E0,4.5777082E0,1.5060549E1,1.4081974E0,2.4617865E0,9.5024284E1,1.4170603E1,1.3275206E0,2.7406838E0,2.3971634E1,1.922358E0,9.218542E0,1.1791049E0,2.5589653E1,1.6102564E0,1.3450293E1,9.287024E1,2.1540437E0,1.2732981E1,1.4376228E0,1.6271712E0,2.2344463E1,7.7636213E0,1.4549208E0,1.5622712E0,2.4027382E1,1.0972542E0,1.2353039E1,1.0348707E0,9.1835365E1],"tree_param":{"num_deleted":"0","num_feature":"57600","num_nodes":"53","size_leaf_vector":"1"}},{"base_weights":[-3.7913655E-3,-2.5084212E-1,4.4855234E-1,-4.654213E-1,8.1580445E-2,-2.1146722E-1,5.784157E-1,-5.0493056E-1,4.101024E-1,-3.4132212E-1,3.836992E-1,-1.5089983E-1,2.0188163E-1,-1.3040237E-1,6.4026564E-1,-1.6314201E-1,3.4743398E-1,-9.8056875E-2,2.77311E-1,-1.5745084E-1,3.2371882E-1,-2.3073089E-1,6.303466E-1,-1.2302267E-1,6.9427186E-1,-8.947949E-2,2.1068914E-1,2.1969785E-1,-1.07916676E-1,-1.4500935E-1,1.3833375E-1,-1.15129374E-1,7.5005496E-1,7.4519044E-1,-1.1926652E-1,2.5293213E-1,-9.7137615E-2,-1.0489336E-1,2.3525982E-1],"categories":[],"categories_nodes":[],"categories_segments":[],"categories_sizes":[],"default_left":[0,0,0,0,0,0,0,0,0,0,0,0,0,0,0,0,0,0,0,0,0,0,0,0,0,0,0,0,0,0,0,0,0,0,0,0,0,0,0],"id":20,"left_children":[1,3,5,7,9,11,13,15,17,19,21,-1,-1,-1,23,-1,25,-1,-1,-1,27,29,31,-1,33,-1,-1,-1,-1,-1,-1,-1,35,37,-1,-1,-1,-1,-1],"loss_changes":[2.4024729E1,9.955359E0,6.631528E0,3.1349602E0,7.2081275E0,3.7464876E0,4.271267E0,2.8874416E0,1.8963736E0,3.0514805E0,5.113218E0,0E0,0E0,0E0,3.7144318E0,0E0,1.1632231E0,0E0,0E0,0E0,1.8621252E0,1.9919767E0,3.1599483E0,0E0,3.5138817E0,0E0,0E0,0E0,0E0,0E0,0E0,0E0,2.421278E0,2.6507301E0,0E0,0E0,0E0,0E0,0E0],"parents":[2147483647,0,0,1,1,2,2,3,3,4,4,5,5,6,6,7,7,8,8,9,9,10,10,14,14,16,16,20,20,21,21,22,22,24,24,32,32,33,33],"right_children":[2,4,6,8,10,12,14,16,18,20,22,-1,-1,-1,24,-1,26,-1,-1,-1,28,30,32,-1,34,-1,-1,-1,-1,-1,-1,-1,36,38,-1,-1,-1,-1,-1],"split_conditions":[1.6575237E-1,1.9029734E-1,2.185519E-1,3.4356777E-2,1.4873266E-1,5.3409E-2,1.9296823E-1,2.3911054E-1,5.7328507E-2,5.990907E-2,2.3864077E-1,-1.5089983E-1,2.0188163E-1,-1.3040237E-1,1.094599E-2,-1.6314201E-1,6.2001422E-2,-9.8056875E-2,2.77311E-1,-1.5745084E-1,7.935577E-2,2.889461E-2,1.8957296E-1,-1.2302267E-1,4.3412782E-2,-8.947949E-2,2.1068914E-1,2.1969785E-1,-1.07916676E-1,-1.4500935E-1,1.3833375E-1,-1.15129374E-1,4.8183322E-2,1.8974078E-1,-1.1926652E-1,2.5293213E-1,-9.7137615E-2,-1.0489336E-1,2.3525982E-1],"split_indices":[25043,22015,37529,26794,24577,42060,31831,49896,1143,46391,43353,0,0,0,24759,0,2297,0,0,0,946,42716,18928,0,33436,0,0,0,0,0,0,0,35571,6936,0,0,0,0,0],"split_type":[0,0,0,0,0,0,0,0,0,0,0,0,0,0,0,0,0,0,0,0,0,0,0,0,0,0,0,0,0,0,0,0,0,0,0,0,0,0,0],"sum_hessian":[2.12976E2,1.3803348E2,7.494251E1,8.364223E1,5.439125E1,1.2217866E1,6.2724648E1,8.043573E1,3.2064996E0,2.2610939E1,3.178031E1,9.513221E0,2.7046447E0,3.2622194E0,5.9462425E1,7.727332E1,3.16241E0,1.4676883E0,1.7388113E0,1.7886179E1,4.7247605E0,9.12165E0,2.265866E1,2.585483E0,5.6876945E1,1.1781585E0,1.9842515E0,2.9121513E0,1.8126093E0,6.902478E0,2.2191715E0,2.159404E0,2.0499256E1,5.464595E1,2.2309933E0,1.9062319E1,1.4369367E0,1.6060772E0,5.3039875E1],"tree_param":{"num_deleted":"0","num_feature":"57600","num_nodes":"39","size_leaf_vector":"1"}},{"base_weights":[3.7846402E-3,-3.485211E-1,1.6060773E-1,-4.2349938E-1,6.490635E-1,3.3141696E-1,-2.5031745E-1,-4.8161566E-1,3.1739274E-1,2.643244E-1,-2.8268169E-3,-2.960202E-1,4.5611432E-1,1.1344282E-1,-4.8279062E-1,-5.351219E-1,5.229707E-2,2.202517E-1,-1.0498248E-1,-1.5844162E-1,3.6021116E-1,5.4840136E-1,-3.65148E-1,-1.460574E-1,5.5373186E-1,7.249662E-2,-1.608627E-1,-1.6579786E-1,5.979137E-2,2.064332E-1,-1.2602381E-1,-1.02713384E-1,2.1437754E-1,-1.3894096E-1,6.197984E-1,1.16969444E-1,-1.5221429E-1,9.780544E-1,-2.6398924E-1,-5.713353E-2,2.0747739E-1,3.2864904E-1,8.862582E-2,-1.229566E-1,3.9706744E-2],"categories":[],"categories_nodes":[],"categories_segments":[],"categories_sizes":[],"default_left":[0,0,0,0,0,0,0,0,0,0,0,0,0,0,0,0,0,0,0,0,0,0,0,0,0,0,0,0,0,0,0,0,0,0,0,0,0,0,0,0,0,0,0,0,0],"id":21,"left_children":[1,3,5,7,9,11,13,15,17,-1,-1,19,21,23,25,27,29,-1,-1,-1,31,33,35,-1,37,-1,-1,-1,-1,-1,-1,-1,-1,-1,39,-1,-1,41,43,-1,-1,-1,-1,-1,-1],"loss_changes":[1.2311499E1,5.409045E0,1.0904793E1,2.9278555E0,8.017309E-1,8.689718E0,3.9312065E0,1.7465448E0,1.7283494E0,0E0,0E0,3.0438633E0,7.143202E0,5.2075853E0,1.2192225E0,8.155508E-1,2.208418E0,0E0,0E0,0E0,1.6114695E0,6.2634106E0,1.2561061E0,0E0,4.1602163E0,0E0,0E0,0E0,0E0,0E0,0E0,0E0,0E0,0E0,4.6528435E0,0E0,0E0,2.869768E-1,3.218858E-1,0E0,0E0,0E0,0E0,0E0,0E0],"parents":[2147483647,0,0,1,1,2,2,3,3,4,4,5,5,6,6,7,7,8,8,11,11,12,12,13,13,14,14,15,15,16,16,20,20,21,21,22,22,24,24,34,34,37,37,38,38],"right_children":[2,4,6,8,10,12,14,16,18,-1,-1,20,22,24,26,28,30,-1,-1,-1,32,34,36,-1,38,-1,-1,-1,-1,-1,-1,-1,-1,-1,40,-1,-1,42,44,-1,-1,-1,-1,-1,-1],"split_conditions":[2.979333E-2,1.225012E-2,3.094543E-1,2.9195055E-2,2.050567E-2,1.8432891E-1,8.862187E-2,3.3448517E-2,5.558548E-2,2.643244E-1,-2.8268169E-3,4.4477947E-2,1.101291E-1,7.977014E-2,9.542111E-2,5.0046008E-2,4.5445703E-2,2.202517E-1,-1.0498248E-1,-1.5844162E-1,1.8779546E-4,2.2484949E-1,1.4154078E-2,-1.460574E-1,2.2749825E-1,7.249662E-2,-1.608627E-1,-1.6579786E-1,5.979137E-2,2.064332E-1,-1.2602381E-1,-1.02713384E-1,2.1437754E-1,-1.3894096E-1,1.306811E-1,1.16969444E-1,-1.5221429E-1,5.0741965E-3,2.1369042E-2,-5.713353E-2,2.0747739E-1,3.2864904E-1,8.862582E-2,-1.229566E-1,3.9706744E-2],"split_indices":[4855,13660,21512,30764,783,36375,17479,21740,53166,0,0,12768,55943,17524,10975,44652,1785,0,0,0,14639,34018,6647,0,26713,0,0,0,0,0,0,0,0,0,3967,0,0,1005,20461,0,0,0,0,0,0],"split_type":[0,0,0,0,0,0,0,0,0,0,0,0,0,0,0,0,0,0,0,0,0,0,0,0,0,0,0,0,0,0,0,0,0,0,0,0,0,0,0,0,0,0,0,0,0],"sum_hessian":[2.2082074E2,6.764121E1,1.5317953E2,6.3447952E1,4.1932592E0,1.0833953E2,4.4840004E1,5.9157528E1,4.2904224E0,2.8507545E0,1.3425044E0,1.7733969E1,9.060556E1,1.7682886E1,2.7157118E1,5.3766987E1,5.390542E0,2.579349E0,1.7110733E0,1.3244421E1,4.4895473E0,8.175124E1,8.854318E0,7.4371405E0,1.0245747E1,1.6229724E0,2.5534145E1,5.2754734E1,1.0122527E0,2.103097E0,3.2874453E0,1.5166104E0,2.972937E0,5.028057E0,7.672319E1,1.1275316E0,7.7267857E0,6.616378E0,3.6293688E0,6.110319E0,7.061287E1,5.1291404E0,1.4872373E0,2.628076E0,1.0012927E0],"tree_param":{"num_deleted":"0","num_feature":"57600","num_nodes":"45","size_leaf_vector":"1"}},{"base_weights":[3.3553606E-3,1.3885678E-1,-4.8645324E-1,-4.022857E-1,2.5152868E-1,1.0407425E-1,-5.2199715E-1,-4.8520118E-1,4.9840173E-1,3.7557966E-1,-3.5845187E-1,3.39703E-2,-1.6157949E-1,-1.6183448E-1,1.1068068E-1,1.9314162E-1,2.9765107E-2,-4.6762347E-1,4.5754158E-1,3.7188667E-1,-5.078662E-1,3.1465754E-2,-1.6010523E-1,5.687904E-1,-1.5368055E-1,2.1935843E-1,-9.570367E-2,-1.6180433E-1,1.9675557E-2,-1.1795672E-1,1.9258898E-1,-1.442301E-1,1.7634021E-1],"categories":[],"categories_nodes":[],"categories_segments":[],"categories_sizes":[],"default_left":[0,0,0,0,0,0,0,0,0,0,0,0,0,0,0,0,0,0,0,0,0,0,0,0,0,0,0,0,0,0,0,0,0],"id":22,"left_children":[1,3,5,7,9,-1,11,13,15,17,19,-1,-1,-1,-1,-1,-1,21,23,25,27,-1,-1,29,31,-1,-1,-1,-1,-1,-1,-1,-1],"loss_changes":[1.4862772E1,1.0795183E1,1.6185408E0,2.5278268E0,1.1165836E1,0E0,5.560169E-1,1.5212474E0,1.14528E-1,8.620155E0,2.9331958E0,0E0,0E0,0E0,0E0,0E0,0E0,4.8222303E-1,7.659897E0,1.436877E0,4.1991377E-1,0E0,0E0,6.899294E0,4.632463E0,0E0,0E0,0E0,0E0,0E0,0E0,0E0,0E0],"parents":[2147483647,0,0,1,1,2,2,3,3,4,4,6,6,7,7,8,8,9,9,10,10,17,17,18,18,19,19,20,20,23,23,24,24],"right_children":[2,4,6,8,10,-1,12,14,16,18,20,-1,-1,-1,-1,-1,-1,22,24,26,28,-1,-1,30,32,-1,-1,-1,-1,-1,-1,-1,-1],"split_conditions":[1.7024872E-1,6.8793915E-2,2.8649658E-2,1.898632E-2,9.918669E-2,1.0407425E-1,2.849787E-2,2.0512253E-2,1.2742364E-1,2.8787342E-1,8.977438E-2,3.39703E-2,-1.6157949E-1,-1.6183448E-1,1.1068068E-1,1.9314162E-1,2.9765107E-2,3.810544E-2,1.7800154E-1,1.4250746E-1,1.4595659E-2,3.1465754E-2,-1.6010523E-1,2.096569E-1,1.4551125E-1,2.1935843E-1,-9.570367E-2,-1.6180433E-1,1.9675557E-2,-1.1795672E-1,1.9258898E-1,-1.442301E-1,1.7634021E-1],"split_indices":[10259,47860,39225,42407,11745,0,23585,25344,65,47139,19398,0,0,0,0,0,0,36871,25939,8049,57301,0,0,31586,4038,0,0,0,0,0,0,0,0],"split_type":[0,0,0,0,0,0,0,0,0,0,0,0,0,0,0,0,0,0,0,0,0,0,0,0,0,0,0,0,0,0,0,0,0],"sum_hessian":[2.2192116E2,1.7439325E2,4.7527916E1,2.9610243E1,1.44783E2,1.5858439E0,4.594207E1,2.753658E1,2.0736635E0,1.2063408E2,2.4148928E1,1.021822E0,4.492025E1,2.6238571E1,1.2980086E0,1.0708163E0,1.0028473E0,1.0270319E1,1.1036376E2,3.8484936E0,2.0300434E1,1.0016726E0,9.268646E0,9.342826E1,1.6935495E1,2.493436E0,1.3550575E0,1.9300346E1,1.0000882E0,6.295108E0,8.7133156E1,1.199556E1,4.9399366E0],"tree_param":{"num_deleted":"0","num_feature":"57600","num_nodes":"33","size_leaf_vector":"1"}},{"base_weights":[-1.2355841E-2,3.8936818E-1,-4.3718103E-1,5.8044714E-1,-2.9242715E-1,8.234032E-2,-5.0816435E-1,7.597404E-1,1.4650236E-1,3.89652E-1,-4.820237E-1,6.6122556E-1,-1.426046E-1,3.536442E-1,-1.6339543E-1,7.9451054E-1,-1.03092015E-1,4.2331433E-1,-1.4896932E-1,2.1134247E-1,-9.8951645E-2,-1.5751155E-1,4.883177E-2,-8.668259E-2,2.6469555E-1,-9.689347E-2,2.3961562E-1,8.262162E-1,-1.0050625E-1,6.5594625E-1,-2.5801772E-1,2.554148E-1,-2.2483805E-2,2.3020522E-1,-9.1333896E-2,-1.5175885E-1,1.1451416E-1],"categories":[],"categories_nodes":[],"categories_segments":[],"categories_sizes":[],"default_left":[0,0,0,0,0,0,0,0,0,0,0,0,0,0,0,0,0,0,0,0,0,0,0,0,0,0,0,0,0,0,0,0,0,0,0,0,0],"id":23,"left_children":[1,3,5,7,9,11,13,15,17,19,21,23,-1,25,-1,27,-1,29,-1,-1,-1,-1,-1,-1,-1,-1,-1,31,-1,33,35,-1,-1,-1,-1,-1,-1],"loss_changes":[3.6535835E1,1.4506584E1,3.8784065E0,6.6026287E0,3.3892124E0,4.6295204E0,3.0751495E0,2.606556E0,4.921853E0,1.5772858E0,6.3513136E-1,1.7205987E0,0E0,1.5618634E0,0E0,2.3993568E0,0E0,3.1876287E0,0E0,0E0,0E0,0E0,0E0,0E0,0E0,0E0,0E0,1.3778114E0,0E0,1.7827158E0,1.0754249E0,0E0,0E0,0E0,0E0,0E0,0E0],"parents":[2147483647,0,0,1,1,2,2,3,3,4,4,5,5,6,6,7,7,8,8,9,9,10,10,11,11,13,13,15,15,17,17,27,27,29,29,30,30],"right_children":[2,4,6,8,10,12,14,16,18,20,22,24,-1,26,-1,28,-1,30,-1,-1,-1,-1,-1,-1,-1,-1,-1,32,-1,34,36,-1,-1,-1,-1,-1,-1],"split_conditions":[2.570375E-1,1.511153E-1,6.6097684E-2,7.75104E-2,6.2313233E-2,1.2932132E-1,1.3438159E-1,1.2281917E-1,2.669579E-2,6.167415E-3,4.255952E-1,1.4183758E-1,-1.426046E-1,1.05680145E-1,-1.6339543E-1,1.0937962E-2,-1.03092015E-1,7.72576E-2,-1.4896932E-1,2.1134247E-1,-9.8951645E-2,-1.5751155E-1,4.883177E-2,-8.668259E-2,2.6469555E-1,-9.689347E-2,2.3961562E-1,8.4872365E-2,-1.0050625E-1,9.045152E-3,8.660068E-2,2.554148E-1,-2.2483805E-2,2.3020522E-1,-9.1333896E-2,-1.5175885E-1,1.1451416E-1],"split_indices":[29832,32104,30644,20276,42420,26323,32916,24518,18080,14624,13685,21425,0,564,0,17600,0,51873,0,0,0,0,0,0,0,0,0,2233,0,41324,353,0,0,0,0,0,0],"split_type":[0,0,0,0,0,0,0,0,0,0,0,0,0,0,0,0,0,0,0,0,0,0,0,0,0,0,0,0,0,0,0,0,0,0,0,0,0],"sum_hessian":[2.1208499E2,1.09049164E2,1.0303582E2,8.5293564E1,2.3755602E1,1.2366484E1,9.0669334E1,5.9824894E1,2.546867E1,4.937529E0,1.8818071E1,5.976834E0,6.3896503E0,3.329757E0,8.733958E1,5.826864E1,1.5562537E0,1.8043474E1,7.4251966E0,3.4491692E0,1.48836E0,1.7815329E1,1.0027435E0,1.0702884E0,4.9065456E0,1.4300531E0,1.8997037E0,5.693891E1,1.3297282E0,1.3478631E1,4.564843E0,5.5445736E1,1.4931762E0,1.2257748E1,1.2208825E0,3.4409904E0,1.1238526E0],"tree_param":{"num_deleted":"0","num_feature":"57600","num_nodes":"37","size_leaf_vector":"1"}},{"base_weights":[-1.4090819E-3,-2.4681208E-1,4.0833715E-1,-3.950562E-1,6.4043336E-2,-1.4165637E-1,5.2549654E-1,-4.3083444E-1,1.7840041E-1,3.1824633E-1,-4.207017E-1,-4.2279792E-1,4.1171283E-1,5.860896E-1,-1.2459057E-1,-4.8590034E-1,1.2621598E-1,-1.1742454E-1,6.2472373E-1,-1.5029988E-1,9.076613E-2,-1.4439413E-1,8.665537E-3,-2.0902153E-2,1.7490965E-1,6.421367E-1,-9.516712E-2,-5.0793743E-1,1.3497414E-1,-1.221467E-1,5.248501E-1,-1.4049897E-1,3.6858043E-1,-1.0616004E-1,7.823938E-1,-9.371624E-2,6.7378396E-1,-1.1986096E-1,1.2988491E-1,-1.5090511E-2,-1.6060688E-1,2.0624101E-1,-2.5503295E-3,2.1520638E-1,-9.745275E-2,2.5948736E-1,-1.1456468E-2,2.1269411E-1,-4.724808E-2],"categories":[],"categories_nodes":[],"categories_segments":[],"categories_sizes":[],"default_left":[0,0,0,0,0,0,0,0,0,0,0,0,0,0,0,0,0,0,0,0,0,0,0,0,0,0,0,0,0,0,0,0,0,0,0,0,0,0,0,0,0,0,0,0,0,0,0,0,0],"id":24,"left_children":[1,3,5,7,9,11,13,15,-1,17,19,21,23,25,-1,27,29,31,33,-1,-1,-1,-1,-1,-1,35,37,39,-1,-1,41,-1,43,-1,45,-1,47,-1,-1,-1,-1,-1,-1,-1,-1,-1,-1,-1,-1],"loss_changes":[1.8897476E1,5.4416475E0,4.610635E0,3.079236E0,4.9165754E0,2.2199194E0,3.5638332E0,2.439252E0,0E0,3.5490284E0,9.520173E-1,2.5741744E-1,4.477703E-1,2.1663914E0,0E0,1.6876545E0,1.8652456E0,2.1494186E0,2.6590366E0,0E0,0E0,0E0,0E0,0E0,0E0,1.7533665E0,9.867005E-1,8.46344E-1,0E0,0E0,4.2928898E-1,0E0,1.5437648E0,0E0,9.549942E-1,0E0,1.5673294E0,0E0,0E0,0E0,0E0,0E0,0E0,0E0,0E0,0E0,0E0,0E0,0E0],"parents":[2147483647,0,0,1,1,2,2,3,3,4,4,5,5,6,6,7,7,9,9,10,10,11,11,12,12,13,13,15,15,16,16,17,17,18,18,25,25,26,26,27,27,30,30,32,32,34,34,36,36],"right_children":[2,4,6,8,10,12,14,16,-1,18,20,22,24,26,-1,28,30,32,34,-1,-1,-1,-1,-1,-1,36,38,40,-1,-1,42,-1,44,-1,46,-1,48,-1,-1,-1,-1,-1,-1,-1,-1,-1,-1,-1,-1],"split_conditions":[1.833051E-1,3.084901E-2,2.2447339E-4,3.8123757E-2,1.5511937E-1,2.1360822E-2,1.2688774E-1,3.0040956E-1,1.7840041E-1,6.3057966E-4,3.3034803E-3,2.5829282E-1,2.5484625E-2,1.9767758E-1,-1.2459057E-1,1.1712007E-1,2.021546E-1,8.212755E-2,5.014106E-2,-1.5029988E-1,9.076613E-2,-1.4439413E-1,8.665537E-3,-2.0902153E-2,1.7490965E-1,1.2438167E-1,4.6994735E-2,1.7848354E-2,1.3497414E-1,-1.221467E-1,2.0500663E-1,-1.4049897E-1,7.294163E-2,-1.0616004E-1,1.3656112E-3,-9.371624E-2,1.4537889E-4,-1.1986096E-1,1.2988491E-1,-1.5090511E-2,-1.6060688E-1,2.0624101E-1,-2.5503295E-3,2.1520638E-1,-9.745275E-2,2.5948736E-1,-1.1456468E-2,2.1269411E-1,-4.724808E-2],"split_indices":[33683,22432,24012,1308,4132,14606,51809,53143,0,5134,25424,31871,2127,26963,0,23863,17279,15363,39417,0,0,0,0,0,0,35219,4972,28554,0,0,1538,0,2627,0,8103,0,26908,0,0,0,0,0,0,0,0,0,0,0,0],"split_type":[0,0,0,0,0,0,0,0,0,0,0,0,0,0,0,0,0,0,0,0,0,0,0,0,0,0,0,0,0,0,0,0,0,0,0,0,0,0,0,0,0,0,0,0,0,0,0,0,0],"sum_hessian":[1.859333E2,1.16535904E2,6.939741E1,7.872283E1,3.7813072E1,1.2150233E1,5.7247173E1,7.65213E1,2.20153E0,2.5030445E1,1.2782628E1,8.213359E0,3.9368744E0,5.413743E1,3.109746E0,6.975369E1,6.7676086E0,1.0591306E1,1.443914E1,1.1781871E1,1.0007573E0,7.2132735E0,1.0000849E0,1.1890624E0,2.7478118E0,5.0075165E1,4.0622635E0,6.859559E1,1.1581033E0,2.8854737E0,3.882135E0,6.171632E0,4.419674E0,1.8309388E0,1.2608201E1,1.3222879E0,4.8752876E1,2.7314928E0,1.3307709E0,4.037751E0,6.455784E1,2.7535946E0,1.1285403E0,2.9176548E0,1.5020189E0,1.1406447E1,1.201754E0,4.6913666E1,1.8392102E0],"tree_param":{"num_deleted":"0","num_feature":"57600","num_nodes":"49","size_leaf_vector":"1"}},{"base_weights":[1.4567652E-2,3.339475E-1,-2.3512827E-1,1.03008665E-1,5.4699266E-1,3.4174103E-1,-3.7827972E-1,-2.921653E-1,3.7724006E-1,5.9506756E-1,-1.0460479E-1,-2.3887564E-1,5.275555E-1,3.0890182E-1,-4.5695087E-1,4.6599546E-1,-4.7403345E-1,-9.506907E-2,5.929209E-1,6.3975745E-1,-9.8740675E-2,1.0091661E-1,-1.2981044E-1,6.179993E-1,-9.300858E-2,6.4612865E-1,-1.1745719E-1,-4.9298242E-1,1.6065729E-1,2.0367477E-2,1.7536202E-1,-1.5268472E-1,-1.1411008E-3,-1.3578545E-1,1.4122948E-1,7.435549E-1,-2.20876E-1,6.8099743E-1,-4.0135432E-2,-3.0849954E-2,7.019567E-1,2.2240727E-1,4.784477E-2,1.6224757E-1,-5.1609427E-1,4.241558E-2,2.3960991E-1,-9.744221E-2,4.5392783E-3,7.158776E-2,2.2649653E-1,2.3040895E-1,1.1493306E-3,1.1015757E-1,-1.6024148E-1],"categories":[],"categories_nodes":[],"categories_segments":[],"categories_sizes":[],"default_left":[0,0,0,0,0,0,0,0,0,0,0,0,0,0,0,0,0,0,0,0,0,0,0,0,0,0,0,0,0,0,0,0,0,0,0,0,0,0,0,0,0,0,0,0,0,0,0,0,0,0,0,0,0,0,0],"id":25,"left_children":[1,3,5,7,9,11,13,15,17,19,-1,21,23,25,27,29,31,33,35,37,-1,-1,-1,39,-1,41,-1,43,-1,-1,-1,-1,-1,-1,-1,45,47,49,-1,-1,51,-1,-1,-1,53,-1,-1,-1,-1,-1,-1,-1,-1,-1,-1],"loss_changes":[1.4961323E1,3.9927845E0,8.8269415E0,4.523325E0,2.04078E0,2.4418745E0,4.7287474E0,2.5989041E0,2.5497575E0,1.8947344E0,0E0,8.0257165E-1,1.4470801E0,2.452888E0,3.001298E0,1.4157969E-1,2.3457646E-1,1.939843E0,2.241022E0,1.3427448E0,0E0,0E0,0E0,9.976425E-1,0E0,1.9060135E-1,0E0,2.0563965E0,0E0,0E0,0E0,0E0,0E0,0E0,0E0,3.693838E-1,8.873032E-2,1.044447E0,0E0,0E0,6.3474417E-1,0E0,0E0,0E0,1.363903E0,0E0,0E0,0E0,0E0,0E0,0E0,0E0,0E0,0E0,0E0],"parents":[2147483647,0,0,1,1,2,2,3,3,4,4,5,5,6,6,7,7,8,8,9,9,11,11,12,12,13,13,14,14,15,15,16,16,17,17,18,18,19,19,23,23,25,25,27,27,35,35,36,36,37,37,40,40,44,44],"right_children":[2,4,6,8,10,12,14,16,18,20,-1,22,24,26,28,30,32,34,36,38,-1,-1,-1,40,-1,42,-1,44,-1,-1,-1,-1,-1,-1,-1,46,48,50,-1,-1,52,-1,-1,-1,54,-1,-1,-1,-1,-1,-1,-1,-1,-1,-1],"split_conditions":[2.6593745E-2,2.4614548E-2,2.2132857E-2,2.0306343E-2,1.796412E-1,8.786292E-3,4.3675818E-2,8.763075E-2,1.0377705E-2,2.8859627E-1,-1.0460479E-1,1.5603673E-1,1.6617161E-1,1.4257614E-1,1.2427137E-2,6.0704585E-2,8.5734434E-2,3.7914163E-3,5.308101E-3,1.4636329E-1,-9.8740675E-2,1.0091661E-1,-1.2981044E-1,5.7744835E-2,-9.300858E-2,6.918235E-2,-1.1745719E-1,1.6772553E-2,1.6065729E-1,2.0367477E-2,1.7536202E-1,-1.5268472E-1,-1.1411008E-3,-1.3578545E-1,1.4122948E-1,3.583881E-3,1.2693052E-1,9.862839E-2,-4.0135432E-2,-3.0849954E-2,2.1283805E-1,2.2240727E-1,4.784477E-2,1.6224757E-1,2.1573573E-3,4.241558E-2,2.3960991E-1,-9.744221E-2,4.5392783E-3,7.158776E-2,2.2649653E-1,2.3040895E-1,1.1493306E-3,1.1015757E-1,-1.6024148E-1],"split_indices":[28343,22639,28023,30447,45185,21551,26209,37587,22191,432,0,18132,4481,29715,34362,110,50954,34931,29006,11398,0,0,0,24370,0,21422,0,24377,0,0,0,0,0,0,0,36791,2822,7425,0,0,30355,0,0,0,20215,0,0,0,0,0,0,0,0,0,0],"split_type":[0,0,0,0,0,0,0,0,0,0,0,0,0,0,0,0,0,0,0,0,0,0,0,0,0,0,0,0,0,0,0,0,0,0,0,0,0,0,0,0,0,0,0,0,0,0,0,0,0,0,0,0,0,0,0],"sum_hessian":[1.8562325E2,8.129869E1,1.04324554E2,3.972293E1,4.1575756E1,2.0465555E1,8.3859E1,1.6246271E1,2.347666E1,3.97764E1,1.7993556E0,4.8924627E0,1.55730915E1,8.31368E0,7.554533E1,2.840925E0,1.3405347E1,7.535106E0,1.5941554E1,3.8235306E1,1.5410948E0,1.0476309E0,3.8448317E0,1.4291983E1,1.281109E0,5.6641426E0,2.6495368E0,7.33844E1,2.1609206E0,1.0127051E0,1.8282199E0,1.2402121E1,1.0032257E0,4.7399993E0,2.795107E0,1.3524483E1,2.417071E0,3.641362E1,1.8216877E0,1.4675152E0,1.2824468E1,4.299414E0,1.3647282E0,1.1148772E0,7.226952E1,1.4336133E0,1.209087E1,1.4168603E0,1.0002106E0,5.8232284E0,3.0590391E1,1.1624182E1,1.2002859E0,1.059417E0,7.1210106E1],"tree_param":{"num_deleted":"0","num_feature":"57600","num_nodes":"55","size_leaf_vector":"1"}},{"base_weights":[-6.081378E-3,-2.2803533E-1,4.0468815E-1,-3.6431924E-1,2.7556133E-1,-2.2835773E-1,5.51803E-1,-4.689996E-1,8.215242E-2,4.6107188E-1,-3.0946586E-1,3.35842E-1,-1.4877677E-1,6.320365E-1,-2.4140738E-1,-4.9365628E-1,1.2424393E-1,-1.396754E-1,3.6202267E-1,-2.7166185E-1,6.1216336E-1,-1.3697599E-1,8.585563E-2,-8.5030764E-2,1.7982687E-1,-1.0045367E-1,6.72035E-1,-1.2964024E-1,9.542639E-2,-5.277974E-1,1.3743725E-1,-1.1874786E-1,5.821751E-1,1.1367198E-2,-1.1394254E-1,-1.04157746E-1,7.2983813E-1,-3.9583534E-2,7.002084E-1,-1.6074456E-1,6.327205E-3,-1.07028686E-1,1.6949713E-1,2.34491E-1,-5.312612E-2,3.278256E-2,2.3685038E-1,-3.3308472E-2,2.1942993E-1],"categories":[],"categories_nodes":[],"categories_segments":[],"categories_sizes":[],"default_left":[0,0,0,0,0,0,0,0,0,0,0,0,0,0,0,0,0,0,0,0,0,0,0,0,0,0,0,0,0,0,0,0,0,0,0,0,0,0,0,0,0,0,0,0,0,0,0,0,0],"id":26,"left_children":[1,3,5,7,9,11,13,15,17,19,21,23,-1,25,27,29,-1,-1,31,33,35,-1,-1,-1,-1,-1,37,-1,-1,39,41,-1,43,-1,-1,-1,45,-1,47,-1,-1,-1,-1,-1,-1,-1,-1,-1,-1],"loss_changes":[1.7161057E1,8.485956E0,6.275775E0,4.552809E0,3.0286753E0,2.153079E0,3.5812683E0,1.9114952E0,3.1112359E0,2.4459743E0,7.4414206E-1,9.5819294E-1,0E0,2.127863E0,7.427701E-1,1.7255688E0,0E0,0E0,2.443972E0,1.5542239E-1,2.2153068E0,0E0,0E0,0E0,0E0,0E0,1.1701202E0,0E0,0E0,3.3251762E-1,1.2011746E0,0E0,1.7566586E0,0E0,0E0,0E0,4.9880123E-1,0E0,1.249651E0,0E0,0E0,0E0,0E0,0E0,0E0,0E0,0E0,0E0,0E0],"parents":[2147483647,0,0,1,1,2,2,3,3,4,4,5,5,6,6,7,7,8,8,9,9,10,10,11,11,13,13,14,14,15,15,18,18,19,19,20,20,26,26,29,29,30,30,32,32,36,36,38,38],"right_children":[2,4,6,8,10,12,14,16,18,20,22,24,-1,26,28,30,-1,-1,32,34,36,-1,-1,-1,-1,-1,38,-1,-1,40,42,-1,44,-1,-1,-1,46,-1,48,-1,-1,-1,-1,-1,-1,-1,-1,-1,-1],"split_conditions":[2.7980977E-1,2.6673555E-1,2.2220431E-1,3.3994116E-2,2.1805827E-2,1.1124222E-1,5.272777E-2,1.0051956E-2,7.489876E-2,4.451478E-4,1.8743818E-1,1.7702915E-1,-1.4877677E-1,1.6898066E-1,1.07898004E-1,1.934278E-1,1.2424393E-1,-1.396754E-1,5.7618637E-2,2.3144062E-1,1.0012476E-1,-1.3697599E-1,8.585563E-2,-8.5030764E-2,1.7982687E-1,-1.0045367E-1,4.625842E-2,-1.2964024E-1,9.542639E-2,1.0496207E-2,1.09796785E-2,-1.1874786E-1,6.815004E-2,1.1367198E-2,-1.1394254E-1,-1.04157746E-1,5.2315623E-2,-3.9583534E-2,1.431593E-1,-1.6074456E-1,6.327205E-3,-1.07028686E-1,1.6949713E-1,2.34491E-1,-5.312612E-2,3.278256E-2,2.3685038E-1,-3.3308472E-2,2.1942993E-1],"split_indices":[16856,26457,35415,21152,24243,1729,12300,7429,42401,51424,47009,9183,0,47320,10158,7204,0,0,2670,30616,27521,0,0,0,0,0,25735,0,0,43558,20779,0,3374,0,0,0,16707,0,36162,0,0,0,0,0,0,0,0,0,0],"split_type":[0,0,0,0,0,0,0,0,0,0,0,0,0,0,0,0,0,0,0,0,0,0,0,0,0,0,0,0,0,0,0,0,0,0,0,0,0,0,0,0,0,0,0,0,0,0,0,0,0],"sum_hessian":[1.8621523E2,1.21181335E2,6.50339E1,9.558939E1,2.5591944E1,1.2159298E1,5.2874596E1,7.739321E1,1.8196178E1,1.9591433E1,6.0005107E0,3.8293564E0,8.329942E0,4.8202126E1,4.6724725E0,7.572019E1,1.673017E0,5.9289646E0,1.2267214E1,3.2127712E0,1.6378662E1,4.9992137E0,1.0012966E0,1.1207796E0,2.7085767E0,1.6220042E0,4.658012E1,3.6543682E0,1.0181041E0,7.198937E1,3.7308266E0,2.5817785E0,9.685434E0,1.0000173E0,2.212754E0,1.5764067E0,1.4802255E1,1.4523178E0,4.5127804E1,7.097641E1,1.0129616E0,1.8073369E0,1.9234897E0,7.647051E0,2.038384E0,1.5466722E0,1.3255583E1,1.5778674E0,4.3549934E1],"tree_param":{"num_deleted":"0","num_feature":"57600","num_nodes":"49","size_leaf_vector":"1"}},{"base_weights":[3.872536E-3,-2.958836E-1,1.6094671E-1,-4.377182E-1,1.0403329E-1,2.5679138E-1,-3.8476652E-1,-4.80472E-1,3.3376414E-1,5.6905705E-1,-4.0475827E-1,-2.764136E-1,3.7393218E-1,-1.5525565E-1,1.3483505E-1,-5.2535623E-1,2.3539181E-1,-5.539102E-3,1.6577977E-1,2.2802699E-1,-1.0075665E-1,-1.4532553E-1,4.1588075E-2,-4.7900078E-1,3.1678873E-1,5.0642097E-1,-9.951027E-2,-1.6193417E-1,1.8801676E-2,1.8922836E-1,-8.878214E-2,-1.5504487E-1,1.1826482E-2,1.8282881E-1,-9.824814E-2,5.648789E-1,-3.2281938E-1,-4.1445443E-1,4.2318726E-1,-1.2782544E-1,1.8426149E-1,1.7328976E-2,-1.26727E-1,1.1502326E-1,-1.5426044E-1,2.13241E-1,-1.0826779E-1],"categories":[],"categories_nodes":[],"categories_segments":[],"categories_sizes":[],"default_left":[0,0,0,0,0,0,0,0,0,0,0,0,0,0,0,0,0,0,0,0,0,0,0,0,0,0,0,0,0,0,0,0,0,0,0,0,0,0,0,0,0,0,0,0,0,0,0],"id":27,"left_children":[1,3,5,7,9,11,13,15,17,19,21,23,25,-1,-1,27,29,-1,-1,-1,-1,-1,-1,31,33,35,37,-1,-1,-1,-1,-1,-1,-1,-1,39,41,43,45,-1,-1,-1,-1,-1,-1,-1,-1],"loss_changes":[9.414136E0,3.9452991E0,6.9600077E0,1.840703E0,4.6802573E0,7.110276E0,2.4472313E0,1.6877785E0,2.6187378E-1,2.0258286E0,4.812113E-1,2.6491451E0,5.846322E0,0E0,0E0,4.2498684E-1,9.3508506E-1,0E0,0E0,0E0,0E0,0E0,0E0,3.3186817E-1,1.310539E0,3.6901245E0,3.6389327E0,0E0,0E0,0E0,0E0,0E0,0E0,0E0,0E0,3.583599E0,2.2916138E-1,1.2822173E0,2.1520643E0,0E0,0E0,0E0,0E0,0E0,0E0,0E0,0E0],"parents":[2147483647,0,0,1,1,2,2,3,3,4,4,5,5,6,6,7,7,8,8,9,9,10,10,11,11,12,12,15,15,16,16,23,23,24,24,25,25,26,26,35,35,36,36,37,37,38,38],"right_children":[2,4,6,8,10,12,14,16,18,20,22,24,26,-1,-1,28,30,-1,-1,-1,-1,-1,-1,32,34,36,38,-1,-1,-1,-1,-1,-1,-1,-1,40,42,44,46,-1,-1,-1,-1,-1,-1,-1,-1],"split_conditions":[3.0164031E-2,1.2328711E-2,1.9650449E-1,2.2403654E-2,1.360588E-1,1.5658765E-1,1.8418995E-1,2.7756954E-2,1.288031E-1,2.4628189E-1,2.824394E-1,2.7765062E-2,3.1245536E-1,-1.5525565E-1,1.3483505E-1,1.0651946E-1,9.408742E-3,-5.539102E-3,1.6577977E-1,2.2802699E-1,-1.0075665E-1,-1.4532553E-1,4.1588075E-2,3.5346577E-1,1.15432434E-1,2.0068419E-1,1.1005787E-1,-1.6193417E-1,1.8801676E-2,1.8922836E-1,-8.878214E-2,-1.5504487E-1,1.1826482E-2,1.8282881E-1,-9.824814E-2,5.830633E-2,4.1936543E-2,4.0066205E-2,1.5995614E-2,-1.2782544E-1,1.8426149E-1,1.7328976E-2,-1.26727E-1,1.1502326E-1,-1.5426044E-1,2.13241E-1,-1.0826779E-1],"split_indices":[15671,14131,25640,45146,25247,43881,37409,50284,19,39129,49689,22383,42888,0,0,55406,55,0,0,0,0,0,0,6868,15717,15592,49633,0,0,0,0,0,0,0,0,10676,28978,25273,41133,0,0,0,0,0,0,0,0],"split_type":[0,0,0,0,0,0,0,0,0,0,0,0,0,0,0,0,0,0,0,0,0,0,0,0,0,0,0,0,0,0,0,0,0,0,0,0,0,0,0,0,0,0,0,0,0,0,0],"sum_hessian":[1.979322E2,6.775214E1,1.3018007E2,4.9944344E1,1.7807795E1,1.1118234E2,1.8997728E1,4.7679276E1,2.265067E0,9.242194E0,8.5656E0,1.9781353E1,9.140099E1,1.6717104E1,2.2806258E0,4.5116615E1,2.5626621E0,1.2188632E0,1.046204E0,7.763343E0,1.4788512E0,7.5650787E0,1.0005217E0,1.4889045E1,4.8923078E0,7.136145E1,2.0039543E1,4.4116486E1,1.000126E0,1.362031E0,1.2006311E0,1.3879712E1,1.0093323E0,3.4014335E0,1.4908744E0,6.695986E1,4.4015865E0,1.2634116E1,7.4054265E0,2.8127782E0,6.414709E1,1.0001446E0,3.4014418E0,1.0879436E0,1.1546173E1,5.4863725E0,1.9190543E0],"tree_param":{"num_deleted":"0","num_feature":"57600","num_nodes":"47","size_leaf_vector":"1"}},{"base_weights":[3.7620051E-3,1.22987285E-1,-4.6681777E-1,-3.762053E-1,2.2037765E-1,1.6014163E-1,-5.064402E-1,-4.65457E-1,4.6483535E-1,3.4737304E-1,-2.5682348E-1,6.5775305E-2,-1.6079175E-1,1.0240033E-1,-1.5691821E-1,1.9015992E-1,2.0495826E-2,4.1604844E-1,-1.4555807E-1,-4.7271138E-1,2.3999064E-1,-3.189699E-1,4.9591085E-1,-1.5994167E-1,8.747483E-2,6.0952145E-1,-1.2403177E-1,1.3807537E-1,-1.520874E-1,1.6587491E-1,-1.3820775E-1,2.2111538E-1,-2.2254987E-3],"categories":[],"categories_nodes":[],"categories_segments":[],"categories_sizes":[],"default_left":[0,0,0,0,0,0,0,0,0,0,0,0,0,0,0,0,0,0,0,0,0,0,0,0,0,0,0,0,0,0,0,0,0],"id":28,"left_children":[1,3,5,7,9,-1,11,13,15,17,19,-1,-1,-1,-1,-1,-1,21,-1,23,25,27,29,-1,-1,31,-1,-1,-1,-1,-1,-1,-1],"loss_changes":[1.1371675E1,7.9436693E0,1.8948126E0,2.2254305E0,8.326549E0,0E0,9.731741E-1,1.3262897E0,1.6233063E-1,6.3643656E0,3.2393966E0,0E0,0E0,0E0,0E0,0E0,0E0,6.0343857E0,0E0,1.1093044E0,2.5438724E0,1.7596023E0,5.1999664E0,0E0,0E0,5.142846E-1,0E0,0E0,0E0,0E0,0E0,0E0,0E0],"parents":[2147483647,0,0,1,1,2,2,3,3,4,4,6,6,7,7,8,8,9,9,10,10,17,17,19,19,20,20,21,21,22,22,25,25],"right_children":[2,4,6,8,10,-1,12,14,16,18,20,-1,-1,-1,-1,-1,-1,22,-1,24,26,28,30,-1,-1,32,-1,-1,-1,-1,-1,-1,-1],"split_conditions":[1.1091967E-1,6.8793915E-2,3.0834032E-3,1.898632E-2,1.565233E-1,1.6014163E-1,5.9836105E-2,1.6517416E-2,1.0589101E-1,1.2672997E-1,1.9856407E-1,6.5775305E-2,-1.6079175E-1,1.0240033E-1,-1.5691821E-1,1.9015992E-1,2.0495826E-2,1.0625469E-1,-1.4555807E-1,1.7599657E-1,4.6868056E-2,1.3508616E-1,2.5051188E-1,-1.5994167E-1,8.747483E-2,3.0513688E-3,-1.2403177E-1,1.3807537E-1,-1.520874E-1,1.6587491E-1,-1.3820775E-1,2.2111538E-1,-2.2254987E-3],"split_indices":[17761,47860,23986,42407,9939,0,29441,12106,19,18529,52273,0,0,0,0,0,0,43283,0,57509,10826,11568,20528,0,0,2766,0,0,0,0,0,0,0],"split_type":[0,0,0,0,0,0,0,0,0,0,0,0,0,0,0,0,0,0,0,0,0,0,0,0,0,0,0,0,0,0,0,0,0],"sum_hessian":[2.0066226E2,1.6068901E2,3.9973244E1,2.5764645E1,1.3492438E2,1.0474969E0,3.8925747E1,2.3696526E1,2.0681183E0,1.0677965E2,2.8144722E1,1.2709454E0,3.76548E1,1.2509061E0,2.244562E1,1.0303149E0,1.0378035E0,9.910511E1,7.6745415E0,1.9653091E1,8.49163E0,9.419372E0,8.968574E1,1.849339E1,1.1597023E0,5.4670653E0,3.0245645E0,1.5492682E0,7.870103E0,8.504007E1,4.64567E0,4.369203E0,1.0978622E0],"tree_param":{"num_deleted":"0","num_feature":"57600","num_nodes":"33","size_leaf_vector":"1"}},{"base_weights":[-1.5413909E-2,3.3431527E-1,-4.1899163E-1,5.0079787E-1,-2.4501787E-1,8.0199055E-2,-4.9223453E-1,5.6093866E-1,-3.5154626E-1,3.807092E-1,-4.5073068E-1,1.8879123E-1,-3.048525E-1,2.4883525E-1,-5.2392614E-1,6.086955E-1,-1.9372743E-1,1.00842565E-2,-1.3203898E-1,1.9079013E-1,-9.2906825E-2,8.498498E-2,-1.5352616E-1,1.0527574E-1,-1.3851225E-1,2.0202392E-1,-9.266855E-2,1.350213E-2,-1.5975532E-1,6.3639665E-1,-1.0436248E-1,1.0180759E-1,-1.2533914E-1,2.0088984E-1,-4.483167E-2],"categories":[],"categories_nodes":[],"categories_segments":[],"categories_sizes":[],"default_left":[0,0,0,0,0,0,0,0,0,0,0,0,0,0,0,0,0,0,0,0,0,0,0,0,0,0,0,0,0,0,0,0,0,0,0],"id":29,"left_children":[1,3,5,7,9,11,13,15,17,19,21,-1,23,25,27,29,31,-1,-1,-1,-1,-1,-1,-1,-1,-1,-1,-1,-1,33,-1,-1,-1,-1,-1],"loss_changes":[2.6198263E1,9.716114E0,3.1895456E0,4.174591E0,3.1160107E0,2.704444E0,1.8982086E0,2.7439404E0,2.1025205E-1,1.2898712E0,9.365716E-1,0E0,9.4982976E-1,1.0995655E0,3.7838745E-1,2.043602E0,7.503815E-1,0E0,0E0,0E0,0E0,0E0,0E0,0E0,0E0,0E0,0E0,0E0,0E0,1.8548431E0,0E0,0E0,0E0,0E0,0E0],"parents":[2147483647,0,0,1,1,2,2,3,3,4,4,5,5,6,6,7,7,8,8,9,9,10,10,12,12,13,13,14,14,15,15,16,16,29,29],"right_children":[2,4,6,8,10,12,14,16,18,20,22,-1,24,26,28,30,32,-1,-1,-1,-1,-1,-1,-1,-1,-1,-1,-1,-1,34,-1,-1,-1,-1,-1],"split_conditions":[2.570375E-1,2.6091072E-1,1.04453504E-1,1.14212394E-1,1.8070877E-1,4.735089E-2,2.6200594E-2,1.0503725E-1,4.0893268E-2,1.015979E-1,2.218433E-2,1.8879123E-1,7.609044E-2,8.626764E-2,1.2048266E-1,1.9595766E-1,3.2498352E-2,1.00842565E-2,-1.3203898E-1,1.9079013E-1,-9.2906825E-2,8.498498E-2,-1.5352616E-1,1.0527574E-1,-1.3851225E-1,2.0202392E-1,-9.266855E-2,1.350213E-2,-1.5975532E-1,4.0085292E-3,-1.0436248E-1,1.0180759E-1,-1.2533914E-1,2.0088984E-1,-4.483167E-2],"split_indices":[29832,32072,38163,23860,43208,48865,31033,47284,29767,16549,49697,0,14977,6,18840,31,5614,0,0,0,0,0,0,0,0,0,0,0,0,18586,0,0,0,0,0],"split_type":[0,0,0,0,0,0,0,0,0,0,0,0,0,0,0,0,0,0,0,0,0,0,0,0,0,0,0,0,0,0,0,0,0,0,0],"sum_hessian":[1.8362271E2,9.846623E1,8.515647E1,7.659169E1,2.1874544E1,1.0883623E1,7.427285E1,7.186298E1,4.72871E0,5.2016726E0,1.6672873E1,4.2246704E0,6.658953E0,2.764999E0,7.150785E1,6.776791E1,4.095074E0,1.0002363E0,3.7284737E0,3.855162E0,1.3465105E0,1.0001684E0,1.5672704E1,1.0465147E0,5.612438E0,1.4521322E0,1.3128668E0,1.0007358E0,7.050712E1,6.618595E1,1.5819534E0,1.0596143E0,3.0354598E0,6.364214E1,2.5438142E0],"tree_param":{"num_deleted":"0","num_feature":"57600","num_nodes":"35","size_leaf_vector":"1"}},{"base_weights":[-1.36004E-3,-2.1645701E-1,3.862542E-1,-4.1050416E-1,-8.433558E-3,-7.74599E-2,5.298295E-1,-4.6775654E-1,2.7333775E-1,2.8846937E-1,-2.50324E-1,-1.3934784E-1,2.895208E-1,5.7750654E-1,-2.3259643E-1,1.1026635E-1,-5.1214325E-1,-8.801829E-2,1.6515863E-1,4.4220725E-1,-1.2668112E-1,3.9742666E-1,-3.8436148E-1,-1.0182773E-1,5.118106E-1,6.0892236E-1,-1.9239884E-2,-9.219868E-2,-8.956583E-3,2.4030738E-1,-1.1118535E-1,-1.5711628E-1,2.3240822E-3,-1.1108786E-1,5.7006395E-1,-8.205159E-2,1.8643628E-1,-4.8604137E-1,2.6828867E-1,1.8593553E-1,-7.4924096E-3,-2.4362108E-2,6.3069624E-1,2.2146727E-1,-1.0951591E-3,-1.5303063E-1,5.719416E-4,1.3859443E-1,-2.65959E-2,1.9821599E-1,8.41523E-3],"categories":[],"categories_nodes":[],"categories_segments":[],"categories_sizes":[],"default_left":[0,0,0,0,0,0,0,0,0,0,0,0,0,0,0,0,0,0,0,0,0,0,0,0,0,0,0,0,0,0,0,0,0,0,0,0,0,0,0,0,0,0,0,0,0,0,0,0,0,0,0],"id":30,"left_children":[1,3,5,7,9,11,13,15,17,19,21,-1,23,25,27,29,31,-1,-1,33,-1,35,37,-1,39,41,-1,-1,-1,-1,-1,-1,-1,-1,43,-1,-1,45,47,-1,-1,-1,49,-1,-1,-1,-1,-1,-1,-1,-1],"loss_changes":[1.3480419E1,4.1937647E0,3.8828344E0,2.2332468E0,3.7495046E0,2.1960635E0,1.7406034E0,1.3390398E0,9.132947E-1,2.7492852E0,2.6489882E0,0E0,1.3014734E0,8.8316154E-1,4.1029185E-2,1.7544012E0,2.8456116E-1,0E0,0E0,2.2648554E0,0E0,9.847833E-1,1.7449648E0,0E0,3.8402414E-1,6.525326E-1,0E0,0E0,0E0,0E0,0E0,0E0,0E0,0E0,1.6886711E0,0E0,0E0,2.522869E-1,3.1224155E-1,0E0,0E0,0E0,6.85421E-1,0E0,0E0,0E0,0E0,0E0,0E0,0E0,0E0],"parents":[2147483647,0,0,1,1,2,2,3,3,4,4,5,5,6,6,7,7,8,8,9,9,10,10,12,12,13,13,14,14,15,15,16,16,19,19,21,21,22,22,24,24,25,25,34,34,37,37,38,38,42,42],"right_children":[2,4,6,8,10,12,14,16,18,20,22,-1,24,26,28,30,32,-1,-1,34,-1,36,38,-1,40,42,-1,-1,-1,-1,-1,-1,-1,-1,44,-1,-1,46,48,-1,-1,-1,50,-1,-1,-1,-1,-1,-1,-1,-1],"split_conditions":[3.4455683E-2,3.8641286E-1,1.7014244E-1,4.965903E-2,2.2679104E-1,1.5455941E-2,6.9570534E-2,1.981415E-2,4.5644604E-2,3.3284213E-2,2.8093178E-2,-1.3934784E-1,1.5355891E-1,1.15015425E-1,2.3313734E-1,1.10299334E-1,6.650984E-2,-8.801829E-2,1.6515863E-1,5.2429616E-2,-1.2668112E-1,6.520071E-2,1.8233883E-1,-1.0182773E-1,2.3907071E-2,3.9118126E-2,-1.9239884E-2,-9.219868E-2,-8.956583E-3,2.4030738E-1,-1.1118535E-1,-1.5711628E-1,2.3240822E-3,-1.1108786E-1,3.221033E-1,-8.205159E-2,1.8643628E-1,7.5800985E-2,1.3381243E-1,1.8593553E-1,-7.4924096E-3,-2.4362108E-2,1.9767758E-1,2.2146727E-1,-1.0951591E-3,-1.5303063E-1,5.719416E-4,1.3859443E-1,-2.65959E-2,1.9821599E-1,8.41523E-3],"split_indices":[29875,33699,20179,21964,4823,55840,56183,6346,3040,44943,33034,0,33439,19139,6594,33217,51311,0,0,3001,0,35511,50725,0,4256,44217,0,0,0,0,0,0,0,0,1058,0,0,7725,723,0,0,0,26963,0,0,0,0,0,0,0,0],"split_type":[0,0,0,0,0,0,0,0,0,0,0,0,0,0,0,0,0,0,0,0,0,0,0,0,0,0,0,0,0,0,0,0,0,0,0,0,0,0,0,0,0,0,0,0,0,0,0,0,0,0,0],"sum_hessian":[1.5968208E2,1.0297835E2,5.670373E1,5.2775387E1,5.020296E1,1.3514758E1,4.3188972E1,4.898986E1,3.7855253E0,2.2452091E1,2.7750872E1,6.4483504E0,7.066408E0,4.0875435E1,2.3135371E0,3.387833E0,4.5602028E1,1.224176E0,2.5613494E0,1.8769863E1,3.6822283E0,